solver_type L2R_L2LOSS_SVC_DUAL
nr_class 7
label 100 120 30 50 60 70 80
nr_feature 1500
bias -1
w
-0.11168388558666 0.07440660587189053 0.1275991461329561 -0.03568310149969171 0.046179740072249 -0.09006877352112677 -0.2430154872513127 
0.110878007016343 -0.03768399145241375 -0.08070416086509373 0.2767567288245323 -0.06018982977460577 -0.06464052130424346 -0.01531185433380692 
-0.0408649256886328 -0.02631208570111717 -0.1527063083445432 0.3822096289905906 0.06098270394518555 -0.06199279614889399 -0.08465141086539735 
0.1083218936492247 -0.05494377660973717 0.1442815406820693 -0.1183957903460676 -0.03087347009654562 0.06674449224323546 0.05195928133927676 
-0.1727765555957823 -0.1107997275197393 0.01210913292138466 0.1040626719789189 0.07120277164777457 0.0729457994819052 -0.1552425153042676 
0.01624114864904327 0.07519384548154728 -0.0504394646502705 -0.05385644039850793 -0.02090090711075869 -0.004506913751733913 -0.1351375598964823 
-0.1150439700510313 -0.02077192602844599 0.04038400646322542 0.04308333716543897 0.1384601471399001 -0.01077831479849646 -0.07124316354511805 
0.008289317921917429 0.06076050589675971 0.003809705907924969 0.150704855945411 0.06350918916985886 -0.01621335211432944 -0.1439611587306781 
-0.03912609007048571 -0.04325862600980108 0.03223245924192976 -0.0793645576736221 0.09369364921885366 0.01462154228524057 0.02117512750954689 
-0.06731183627137745 -0.06181607005902126 0.06503767798922284 0.01577523406324878 -0.05763320330955669 0.07786382594022137 0.07765492368764722 
0.06986783511055049 -0.01189466619645558 0.0475655029521045 0.1645595275280748 -0.07018573047663849 -0.07604322017705377 -0.0768135383954168 
-0.08095066182717439 0.02053501514683718 0.02483872074809421 -0.04854709929439954 0.07227003991399408 -0.01583696113171342 -0.06049010730413901 
-0.05871106755019725 0.02712132432413753 0.08513355426686373 -0.02279370819769028 0.1498109913804304 -0.03077461462289757 -0.05839497545864308 
0.04802797337165153 0.04474670132166556 -0.03293627102148244 -0.04141593556744776 0.1214821145647379 -0.007137870785477259 -0.04311928563673124 
0.06235256906458252 0.1099370296940745 -0.000795034915244922 0.09804335034309625 0.05070017197167123 0.0008992510790963593 -0.2231015770812888 
-0.02403360702332997 0.05338709012659551 -0.0274321553276877 0.07375871835627328 0.1109703986430828 -0.03753353214331569 -0.08838963662410505 
0.06803689801769658 -0.06854898462916427 -0.08244438548690865 0.008581650087024972 -0.02793049897963362 0.03842967941888993 -0.04859055196876848 
-0.0692337698852363 0.05712114297771936 -0.0215164423644915 0.0942142403415257 -0.02951810391424764 -0.04287482237337059 -0.08384944949794504 
0.00738412461679455 0.03095554236459267 0.1871913515697143 0.03070751238757309 0.07551573629441129 -0.1357279082184307 -0.1507402676108104 
0.06513050740775832 0.1284175949185287 -0.1137840643193219 -0.0368329850460673 -0.009178201615004268 0.09048783707799764 0.07989405248649113 
-0.01500628826456931 0.03316160945516066 -0.1086713072936296 -0.198951233524939 -0.02909941689604407 -0.03328992434926609 0.08165477054039534 
0.04327086257028776 -0.107512786118334 -0.12276437763519 -0.02047551198532137 0.02545311264234472 0.01318163276655506 0.2340198645886455 
-0.1425147302540204 0.1208033491149051 -0.01895509301736235 0.05619915235052052 -0.02484280907604685 0.09309461551966668 -0.01764482320263825 
0.1157176280919426 -0.02724873572569539 -0.1500267320478906 -0.002041617969667665 -0.06041061403475297 0.02908328482244142 -0.04456343984394645 
0.02182668674014668 0.004592501781599249 -0.2660820984659675 0.01539103589094422 0.03763866636478792 -0.08650473513600285 0.07352396845345388 
-0.06733696922418862 -0.01908213175914283 0.00210044736324467 -0.02785827836201978 -0.06995452697669362 0.07371376566440219 0.04152378189333703 
0.07600590893353172 -0.1189039767282359 0.2119193692551007 -0.2376077827214629 0.0317079053030958 -0.004755982773669586 0.02845254301689223 
-0.1131919829119062 -0.04622697180552672 0.07118601768699834 -0.03739650802020247 0.0448914483543592 0.01098963045009779 0.06206815158702844 
-0.007709796631346247 0.05394247217444502 0.01419102047644546 0.08726156362486785 -0.07363919876381768 -0.01418287364301652 0.03668442760485952 
0.08611914718113858 0.08224513914112176 -0.1042186070772217 -0.04773456860912113 0.1804096458183859 -0.06197570020147221 0.02128471965163952 
0.1460231055036708 -0.1199119336652924 0.1458335706196201 0.1940220417776096 -0.1172262564478433 0.01839870102499079 -0.06127833437272567 
-0.04746294069154346 -0.1959827865309282 0.07546290000372226 0.1978460360335588 0.008295138643780849 -0.05697669405378374 -0.112236240695195 
0.01783446272805996 0.04603626516384227 -0.1226244662569442 0.1384520627796689 -0.1061560938460992 0.02945123389814206 -0.2211784511721274 
0.1966050390422541 -0.1273107928512719 0.1023860920630242 0.05317412827206139 -0.1118941673780188 -0.09340576054911946 -0.1275029602837342 
-0.06511025106601989 0.07068107285562036 -0.01473526395081719 0.03645520935329275 0.03934343057774654 -0.006880392057335078 -0.001226380075482956 
0.05692763048534835 0.06419892380947341 -0.05548543731692462 -0.09920496645310518 -0.05737905457612311 0.0216766284226047 -0.06388040651810158 
0.01763624116075378 0.07143067869345369 -0.006368817753978286 -0.1970858317810912 -0.04071997379334531 0.0294273834423752 0.2330558426600002 
0.06009844622515301 0.06253109736392197 -0.02727863918840223 -0.1719751137475716 0.06892294530906194 -0.04539016534444029 -0.1212593604547706 
-0.07611373731105799 0.05180502341132617 -0.1106580087476008 -0.08596376493956562 -0.08103960068116875 0.001737998280810501 0.03023693442560989 
0.1124868187126857 -0.08078434886324641 -0.01530512237785965 -0.01392830507445984 0.06026143369656989 0.05479380688981429 -0.001381100012213291 
-0.1174360575009953 0.09772129374738682 0.09055901960643646 0.06039156408764599 -0.1124354212820756 -0.07203815232798051 -0.04460307123687269 
0.02627589214281486 -0.09306686566085458 0.101758738581902 -0.3116570585509145 -0.07436288324037008 -0.04085318519731497 0.1257478669827256 
-0.1041248589740462 0.01959605672267082 0.1195731817789247 -0.01230518156078318 0.0002724396812048599 -0.0218223856596089 -0.04441942197453028 
-0.01772057610998251 -0.08037912178785286 0.08883480994923254 0.009655180207173366 -0.004286730282008258 -0.009001893802570242 -0.01114537634925703 
0.07972220227429669 -0.06289858681601715 0.1329059947575397 -0.02916331724242195 0.06106352058796378 -0.01371776998368901 -0.281039078409328 
0.04550338884140795 -0.09136252817407799 -0.07306425660979989 0.07468217420303801 -0.004696860858925426 -0.009919989189787461 -0.08142909160565485 
0.07662336544915828 0.08431450072008417 0.03674708992963718 0.05953024185241727 -0.04283637303586003 0.02448383005257443 -0.07680538032752085 
0.09843519771911879 -0.2083178645445119 -0.01437886342851413 0.1239187876628518 -0.06303209377341441 -0.00130930067876368 0.03209564738513686 
-0.004120250982616314 -0.01090244493338436 -0.09914823653234008 -0.03087915080610408 -0.004726177559064436 0.04676144491359981 -0.08317174530416935 
-0.03626100604680769 0.009000756745924057 -0.009719797690670322 0.03472958231041707 0.04002144676680674 0.05477787952163295 0.1036277298853004 
-0.06898894095620146 0.009785656894153144 -0.07461611465404989 0.07681752791925905 -0.02529795922527973 -0.05428340567745228 0.1027612555633343 
-0.1001938893713446 -0.006615707528828432 0.007004836195498763 0.02730546854777952 -0.03804159204677139 -0.07271826139733499 0.09219813867050301 
0.03516265951208949 -0.1021149456694332 0.1126860575295928 -0.137360572458565 0.06992195915720582 -0.07292815991753486 0.06574907420418853 
-0.03808972683175968 -0.1125860609674938 -0.1005772735731557 -0.0255581370816948 0.01861383055038113 -0.02749626349196045 0.1518765340913893 
-0.02998791639272223 -0.0887260766393263 -0.08725426419440706 0.1295701000638557 -0.03592944884820043 0.07578549013748803 -0.06173084934495496 
0.1299017137742914 0.00861238301427536 0.05241588725323369 -0.01471161148532806 -0.06668364983068853 -0.02340291607227619 -0.2136075035227966 
0.07126281793902256 -0.09514885451812641 -0.07251119024174447 0.07473397349224455 -0.01697047858714464 -0.005004675697775803 -0.2138890102254721 
-0.02467363785405935 0.009810714949226926 0.08313101638140517 0.1037243305076399 0.0124762295097951 -0.04260154092789696 -0.2184616010172618 
-0.01386825569965524 0.02769055372471861 -0.06627662519507573 0.05891078206603977 -0.01527259974707062 0.0001800835121182982 -0.02127091732991848 
-0.05219102687707505 0.05667604193653965 0.04185906507306825 -0.08474794803339636 0.04076251236190273 0.01342739246884977 -0.1542118500650479 
-0.01309170506691022 -0.02095866829212324 -0.007633420326449635 0.1994163293794096 -0.05104069404489698 -0.01446453792033873 -0.03363259584760844 
-0.05352043015109149 0.02136731254460699 -0.074322824930902 0.1242753173305223 -0.05988385462866291 -0.008795324751373108 -0.09706554378682779 
-0.003734645571999981 -0.01433377635669967 -0.005689470376426793 -0.02744156721714766 0.001514561080081248 0.01345829630740163 0.1430092651605086 
-0.05181826671464439 0.01942885079731366 -0.08871783750405722 -0.049276752419189 -0.07521876700600885 0.01374843146571002 -0.0009443407148882118 
-0.04837350871149277 -0.002083457559126357 0.1696894592599634 -0.03196012103836264 -0.06328730170189875 0.01660148202003513 0.07033925881060062 
0.04759927411736493 -0.07853411625131486 -0.0220794925824435 -0.06966237941318294 0.03495159808068992 -0.05287269591667225 -0.0156515685082646 
-0.07883282543466333 0.004619596012917985 0.02886720452655427 0.006511992176477521 -0.01555246206697361 -0.002366600988611032 -0.1059754828241124 
-0.06482113875902809 -0.05292320858735223 -0.01573686975262738 -0.02452540965646411 0.009325740134800075 0.02029577912363071 -0.0738765354636262 
-0.05653746105808355 -0.02793873691154907 -0.05376936488910576 0.006918923250243516 -0.02912587298907956 -0.004616938588543092 -0.01838844967797966 
-0.04256291494657292 -0.1095186303855874 -0.005064519361404273 -0.05178081317458499 0.08785003229623133 0.01889436429043833 0.1864364051868677 
0.00611494445157637 -0.2329211253138493 -0.06228723988382633 -0.03444207973008498 0.03323186261306674 0.1218208667491439 -0.1460312661011309 
0.002570789189417963 -0.02776053172897468 0.1642294000113225 0.07321806277216554 -0.1012055108626208 -0.09085702697791496 -0.1155759273753134 
-0.06467107980631735 -0.03146165606343951 0.03882418019750128 0.06732637215283083 -0.01363488040371284 0.01692885684894904 0.08319575868320499 
0.003827603889365393 -0.05826220349918074 -0.01418733613751122 -0.03190146157659721 0.01245740698207849 -0.005360412153184262 0.02001774295399022 
-0.04010163630691253 -0.09607716553049589 0.06857421259743923 0.06544467569323088 -0.03569864394213931 -0.01957949168077704 -0.04867755213421468 
-0.02787158581235697 0.1155895311334706 0.02751777726065697 -0.08227589534946537 -0.08459958193887238 -0.02194466046576362 -0.03320264743303761 
0.03711005816153517 0.04673316287576091 -0.06292630613002179 -0.06823181501507451 -0.01794871673983267 -0.05374508719736115 0.05790094710538187 
-0.01486198490000046 -0.01824078386050745 -0.03169457455913063 -0.1764164246439112 0.03310196712807827 0.09762834736352866 -0.175695775491378 
0.07041284486086338 -0.1507684121104286 0.07420961254850061 0.07655262462739078 -0.009463838429290021 -0.005099644778693888 -0.2152342718532548 
-0.09822880611691683 -0.001732963696874347 -0.1204138081787203 0.03567390648604353 0.03183164868833238 -0.05495698262796277 0.05867340332836909 
-0.01893421109782575 0.04063235541624555 0.01250221644026204 0.1104066083208098 -0.1035381807638111 -0.09801181205603229 0.2109494900023624 
0.09284408178806117 0.01386859005197858 0.03768319400381143 0.03482986231509079 -0.03693447089362005 -0.05696636747270235 0.156706508818632 
0.03362484195836948 0.1459442744589144 0.09133452289703944 -0.1259801537020915 -0.03054738573546979 -0.08025328530991031 -0.1219933023467173 
0.04863835525704905 -0.02234357811002956 -0.009332483668191876 -0.08338205358376755 0.0003188511461105912 -0.02353527052997052 0.03581261621273147 
-0.06972439513636693 -0.02852052029790698 -0.0824900062494802 0.103316199542146 0.001297776711303004 -0.04410508295620369 0.07532389066056418 
0.02082300672595561 -0.1293048496164278 -0.05646580083152111 -0.1803233208207273 0.07929697721919027 -0.01104718945389171 -0.01632219887741147 
-0.005446784258623038 -0.02204653300750008 -0.007365101035281235 0.06332253438830865 -0.1054503983117496 -0.03965568815481278 -0.09291628820543515 
-0.0607385965825677 -0.0810863229112104 0.1055199264552395 -0.03239665020454578 0.1423307388602961 -0.003626646901613356 -0.1564604345593784 
0.003002215211760208 -0.07991173852103794 0.02518137486001614 0.01179754436176026 0.02687866432778276 -0.006538850703406465 -0.02200210096739033 
-0.02919897535022009 0.007257268984689076 0.01004932514259289 -0.003921154785141845 -0.03520529046845833 -0.01077134719472428 -0.06188316188389517 
-0.05409762385745619 0.01896388270016024 0.08125545049107476 0.03435371349130685 0.02825087361338943 -0.02896322795846623 -0.2301362137390265 
0.1238005911750902 -0.0279152555756135 -0.0677385940562201 0.0352160292788482 0.0697213644101192 -0.05568044818299597 -0.05620827915100365 
0.002769830687152925 -0.1505472378109508 -0.09912218346209299 -0.003666016516254974 0.008397766558339506 0.08328815323564842 0.01370619072550506 
-0.007647759190067304 0.0002988681099164708 0.04154159558630518 0.1574507618770712 -0.08475311037712648 -0.02962828520568195 -0.1078868258464764 
-0.05341139947287186 0.03149366167332755 -0.05673860872455955 -0.01445120569141988 -0.07911314614251541 0.03674069082642249 -0.01084827575000201 
-0.09225885211303503 -0.06109722142305135 0.1528219067487642 -0.02351952952536474 0.04943384122420875 0.02427812533263948 0.128186605712222 
0.007787322758641554 0.09098193228218028 0.08725673222000759 -0.1668465308326253 0.001803036068720921 -0.07490483114598644 0.002185895904451839 
0.003484888739393019 -0.0652449833219355 0.05295553218535809 -0.2074873961781684 -0.05018981503711995 0.044878694532357 -0.02775031092585402 
-0.09699557299499466 0.004220062213771261 0.07455424950036078 0.1468829860638852 -0.03803675873934596 -0.01745490985497922 -0.07318764671784979 
-0.10648108140669 -0.02741558032158052 0.08826993806680057 0.03731122532010572 0.008421002552983857 -0.01393924930744471 -0.1364009172236351 
-0.1550415198684974 -0.1187074811333509 -0.06055758838824364 -0.0242069558151902 -0.03874064767952704 0.003053850707340824 0.148353207600119 
-0.004860024963461286 -0.1047924839914621 0.1434763450722998 -0.1573639892730707 -0.0179099648512031 -0.04948878390064867 -0.03537121187622995 
-0.03905605305570159 0.0534511903254631 0.09970407328304942 0.1222202637536051 -0.06763655149601602 0.04467563383296811 -0.1162341926420202 
0.0005518035161851699 -0.009611234524030187 -0.08176584030794055 -0.02865627629123442 0.1197619032959077 0.0423773182763239 -0.1712360470792087 
0.04281995684205493 -0.03063416453224418 0.04610543480891544 -0.008236074610856266 0.08427306542049137 -0.01989215610014764 -0.16325456578582 
-0.02815712201320121 -0.06136280782410288 0.07307265179676295 0.03035216361371549 -0.04426914791373592 -0.05941123108546133 -0.008704523628201091 
0.01388656622298682 -0.03042287148853046 -0.03009196360361321 0.02399271156387222 -0.05614836233399632 -0.0007121950274475151 -0.05303594886451787 
-0.01498234005329161 -0.0320055792434354 0.007276436635667556 0.09254153079837127 0.002173202168005246 -0.03270761370977752 -0.04702982606000929 
0.009444499908948153 -0.05102886331497263 -0.1183256769740955 0.175047986078542 0.03599925578927812 0.0003815247376458599 -0.02082679003522052 
-0.009708525923237713 -0.1453326361858105 0.1064768156386572 -0.007499160779364083 -0.04398576232372146 0.08045604878370474 0.06629269267737301 
-0.06369815981853737 -0.04994560199874699 0.06971002750387413 0.03079767196019511 -0.009209047896967294 -0.05130161390433809 0.1692135416192937 
0.04648721756816333 -0.05823227822672966 0.003708260039364818 0.06390977091216722 0.04552360521897722 0.0005547900668284303 0.1174285101034155 
-0.05739137036890054 0.02955355344811009 0.06691310691166416 -0.05908779714267892 0.06283178496893589 -0.07075163304319962 -0.1486916668043986 
-0.03393409062203315 -0.07919423403160127 0.07152168197745547 -0.09919625029752187 0.1201893127894283 -0.006744724624027562 -0.02479984729033305 
-0.04348216414383154 -0.07668892752141968 0.03170848060229475 0.003920006846389721 -0.07336845268300932 -0.03926165484665453 0.09099973877556973 
-0.06539316984324135 -0.01288246833043696 -0.1011047037407477 -0.02777600011618283 0.05828351452685978 -0.02571761548630942 0.09220529227145283 
-0.04622077716266035 0.01871671408254636 0.1738988295238487 -0.1860786544651849 0.09830325383800627 0.007973835379085933 -0.1074802936462812 
0.02071342422299392 0.08919935608569582 0.0181882483628548 0.1174352497278306 -0.02321867499622661 -0.1333114432412721 -0.2204356823939184 
-0.08117385799330701 -0.1081514956932341 0.07426008886231188 -0.07292951434525734 0.01668860198807248 0.008076645033323188 -0.0008184919130251743 
-0.05794574155433223 -0.1793093536670286 -0.007671671461156254 0.03058591221487181 -0.03062856863532967 -0.0216796377396726 0.01809141913492981 
0.001430040472801181 -0.2204052281158323 0.02680711975344954 0.235139505333344 -0.005558800232533125 -0.0501905638733247 -0.1148871966024312 
0.1165745885264999 -0.07838942973032867 -0.02483227279918005 0.01933374943788901 -0.001477221891818195 0.0593644793957331 -0.1216330211787782 
-0.005639431538360604 0.0318870762044032 -0.0663554507384798 0.1017770099854726 0.0120879738989426 -0.007860654377577381 -0.2786270772913179 
0.1046733937506338 -0.02264075830728738 0.001204397390516314 -0.009184835745421612 -0.04946957892097792 -0.09331305328531989 -0.05205849457012218 
-0.1138166938860164 0.1050040481914179 -0.1271271588466194 -0.09037523094976711 -0.1505511871315451 0.07292056289591367 0.1292892919026621 
0.1113508751090648 -0.06492793368231375 0.04235404616788795 -0.2156353309532221 -0.04457408204762348 0.01568886013479784 -0.01217119085725024 
0.04258670587833009 -0.02084621275513673 0.1374727070407574 -0.05017502688966241 0.08240542155260404 -0.07385024218230715 -0.109168054462153 
-0.05689319290955071 -0.01990565460962268 -0.1094629395712417 0.1056561176806555 -0.002262969021776881 0.06179725610611315 -0.2576224707575352 
0.01639993771652051 -0.02191819045763147 0.003166591221096187 -0.01739081140691461 -0.0574667145483695 0.02162695723173882 -0.1218274003500861 
-0.1152998333829778 0.08971034287757737 -0.02635755700966235 0.2234735668057007 -0.1401316483510728 -0.06541209362556184 0.2584119658950579 
-0.06934926932548625 0.07104539478442773 -0.07799989840333449 0.1606585287155937 -0.02628391895048612 -0.0580663444012219 -0.1101375954662349 
0.01570858640126846 -0.1146557229487369 0.08823559245424989 0.007857526367178486 0.06620866426858063 0.03800390253507074 -0.1165905608315563 
-0.1423380729330191 -0.1485975440201597 0.02891087499136736 0.01403133195157696 -0.01338704855716638 -0.04899613572446208 0.03653522686217812 
-0.04822441239559825 -0.02687378821909342 -0.03573266504368807 -0.04477073557527682 -0.02685976365143046 -0.03871556341888756 0.01690693160552729 
-0.1377875880217903 0.09464538889599657 -0.01255565126494908 -0.01125894076305873 0.03861492219701088 0.006491982375763942 -0.07555870639978557 
0.2055067789611254 -0.1218188310171667 0.07365873962306914 -0.1044772488396225 0.04637230302794531 0.005250041963165458 0.1290682644549393 
0.02219320840861394 -0.02772207588066636 0.01983697996205188 0.1231938885664346 -0.06785137322879538 0.01245241036240394 0.1241473617754749 
-0.009749465102802161 -0.04709653472075254 -0.08641063824729937 0.1086170693371121 -0.03286219655204142 0.008308164937112289 0.1279341599584622 
0.01492737465106242 -0.07327831753575469 0.03253364589680521 -0.05673198040293727 0.1568724236972074 -0.006511967054080343 0.003546773962295351 
-0.1034455545241597 0.1541008928012541 -0.05828574379446851 -0.004301909643911537 0.06893800640879919 -0.02175039069506527 -0.04567513922558023 
-0.189629790270072 -0.00116555306425409 -0.08126472552627763 0.03445771502379973 0.02665142242168038 -0.05212093824491382 0.1200019659533359 
0.01322267338356696 -0.05729607183755823 -0.197088210314173 0.03591410830448307 -0.1515725469551536 -0.05934490649596798 0.1570414492780031 
-0.08612227330662302 -0.01247635062953882 0.053788405825733 0.03407351590737568 0.03143552782547169 -0.01521960679762118 -0.1105024030003812 
0.09656387692431666 0.001412056661558293 0.03832780973004543 -0.01195132192536954 -0.1082922381047757 -0.1176331969336535 0.09391541595336481 
-0.019036613876951 0.06281751785579431 0.01783293873669647 0.03119221868477699 -0.1133206578742665 -0.1403838074287188 0.06168345345273964 
0.08931036829840527 0.1033731264601943 -0.09228530986935293 -0.06455508242239781 0.1544732408481175 -0.06311921536821233 -0.01464346474147298 
0.06063348832885737 0.04346233422468933 -0.08221979449332149 -0.04411323207016521 0.03174688825746257 -0.03315286739602057 0.05317743684092334 
-0.0171903374542264 0.02016815669460693 -0.06028475562222292 0.2393729574972772 -0.07736900233865646 -0.01217196996543263 0.0004677555564871682 
0.02485313059060415 -0.006355733665878359 0.08526190399123455 0.06094043517136873 0.01187376955399201 0.02244018530481559 -0.2155298823975673 
0.1901964324180023 -0.03168062562785911 -0.07342764772271976 -0.02781687783325874 0.10605268303068 0.07205074884315758 -0.184782708110814 
-0.01560498595869442 0.06443937586029022 -0.04051771663419593 0.06093032157731797 0.04515462804862471 -0.1151255990998858 -0.2435996194087668 
0.0712763672506137 -0.1051907371992859 0.01389812903840968 0.09942931978408144 0.08548824251034545 -0.06998062679205957 -0.07834851293519586 
0.218302647271717 -0.2127985467494224 -0.01159382798488985 0.2084465928095047 0.03094169470351046 -0.1191393172644683 -0.004904221203537272 
-0.002645623613997947 -0.03034361788143295 0.01941818369506215 -0.07678052835544277 0.02777569337516205 0.03126715478243932 0.07233737228567617 
0.05978485406922058 -0.1095838015799576 0.0432698415690828 -0.1648240816873901 -0.008757230504311422 -0.01684822600990618 1.022028849665902e-05 
-0.04196822084820569 0.08378961508431276 -0.07860879657337978 -0.08429867271408034 0.07360925049102113 -0.01755309963366062 -0.1916466411406524 
-0.03028097077269938 0.1006555537933994 -0.03787137632649693 -0.03664979462485531 -0.074446932755613 -0.01267170074786813 0.08317086596937003 
-0.03624769377986584 0.01797410308484951 -0.01817908434720404 0.03659894924735375 -0.1199090446510963 -0.001523216476382804 0.03432084554487617 
-0.1099341902527524 -0.1093532686296505 0.03378290801834326 -0.1906644034561576 0.03954614605569864 -0.04844968670243103 0.3223451512230436 
-0.03659226108863101 -0.0703589421439843 0.04365702413124777 -0.001246523681678736 -0.01450131419381229 -0.02687086698653663 0.2231511514130397 
-0.02170008542583755 0.0333635978373955 -0.03133328066687733 -0.02220768566696666 -0.08224495019882153 0.03017808832853116 0.1471050214750181 
0.2240801941345623 -0.02054261433801895 0.1932236539037687 0.004036649869988905 -0.0780984142209482 -0.02748648435847992 -0.03554218815729464 
-0.01733347322717266 -0.01259449466320375 -0.004896061943101054 0.02333000602354976 -0.07315390497699693 -0.04363318776427035 0.1318703927811427 
-0.007237952954882248 0.09219855846548503 -0.07291970921398229 -0.1630980722439064 0.06843433522127983 0.03328133356065224 -0.2474273227720868 
-0.03601280993100338 0.152355370954082 0.02612729208866827 -0.02906368658455297 -0.004325020585874639 0.07296914573525355 -0.05806448308279727 
0.007806645914507746 -0.1573803814817246 -0.2178224276627663 -0.1058692138041864 0.06763873734444507 0.06340764578890297 0.1515229661094487 
0.04255812617467369 0.040295430602219 -0.07323632027725717 -0.0797529407242748 -0.06165419719640141 0.07528342418676297 0.09071147163534925 
0.02920151593085686 -0.02691762281301314 -0.03403604142439462 -0.04425070071805456 -0.02927960458109179 -0.0476327790778085 -0.003043689303450846 
0.1208291360340951 -0.04148046660642105 -0.01365631094107157 -0.01541655819570387 0.1028503819933278 0.03356718119837793 0.0143429531129751 
0.01519677875926922 -0.02952827405715825 0.1564316621272126 -0.03783600233404759 0.04408717300546787 -0.01554376656348568 -0.2091505400516269 
-0.01316265704391969 0.01265454377770107 -0.1093282015967376 0.1092576637914216 -0.006268202486130406 -0.0503042590887809 0.07623134746816247 
0.0959455487414123 -0.1045399045516014 -0.10516358581824 -0.04086726001853046 0.04500274657645198 0.01704814273884562 0.05384788590355954 
0.05568062849962792 0.06336979105921828 -0.1719716049854645 0.1154437502494568 0.04439985298818625 -0.03808888577539796 -0.005383622639272177 
0.08929181989202672 -0.07978225723285205 -0.04723821023354705 -0.1383230527970616 -0.0261082290708578 0.0267032124044721 0.02426600724848681 
-0.06361371936489407 0.03272044195781108 -0.1027642060675365 0.001479593384596386 -0.1266795800515277 -0.03639215330593098 0.05622332013089843 
-0.08658360735591923 -0.1161489425899055 -0.1221314037425864 0.0595934570231143 0.03772323122120035 0.03969169437489576 0.1915712493992232 
-0.03835611738255956 -0.06402681472973319 0.002083747631459546 0.03541807015316171 -0.08052472285678003 -0.008373283612523394 0.122024626604383 
-0.03837379469420966 0.013087099242483 -0.08572975251104513 0.1558818491502527 -0.01563496881879391 -0.05211589861878456 0.2002083440167094 
-0.01439331090171868 -0.0160285767778019 -0.1131583417438508 0.004483851603319734 0.002989478823894281 -0.04091086485854586 0.01520292886794929 
-0.05332612351770179 0.1191351080524104 0.02576995344056066 -0.05496558058883838 0.01040647166749191 -0.09296602908696332 0.09905940398451674 
-0.09379598382910885 -0.1257786763589143 0.1904966829773935 0.1540887425265597 0.0263379143726922 0.02343502922366396 0.07530234675802747 
-0.02857220429956991 -0.1211427045530475 -0.05530202639712841 0.04022323672489831 0.05958139876949801 0.02599295904708857 -0.02861239645440245 
0.06219379369519069 -0.018582535253405 0.06868001524074219 -0.02195491625810352 0.0001721574281923722 -0.04062968051678502 -0.08657467518168692 
-0.002015732226511155 0.009498309500117348 0.09037778326505 0.01252658181075763 -0.07947613059137047 -0.1020197088961597 0.1394512984559965 
-0.03377472620640317 -0.03462187530086476 -0.02557940650959493 -0.05089401782801834 -0.09836762035965785 -0.06331495621383468 0.1730788841208144 
-0.05281440313756181 0.01660071177541663 -0.07566732346868117 0.07725292329619314 0.003233843495206738 -0.03628886938167249 0.02997702751093794 
-0.06901251207500553 -0.02170041918186168 -0.002336303718661959 -0.1644318429342259 -0.03049140338927026 -0.01235224111265899 0.2903931856991951 
-0.07775878580587688 -0.02889752471891307 -0.004082278845926189 -0.289968801740794 0.04674717048271695 0.0129240486659513 0.06900450930675023 
0.08038018250857017 0.0199712107047852 -0.09585785867844933 -0.297166106359227 0.06490273376189644 -0.07836564777384687 -0.1396341188297592 
-0.04839773294545909 -0.08218962533097851 -0.08240563408054805 -0.02648918141431474 0.1015524046973971 0.009162000215229874 -0.212860711720121 
-0.1133545424056575 0.06201728799168482 -0.006420022324708114 -0.02892659339464471 0.08414778261028204 0.07571387514454821 -0.1629943700546451 
-0.08765211447282791 -0.02808310453524748 0.03483431322126121 0.08387106716921701 -0.06840084133449661 0.06139775635532552 -0.02330192261820676 
-0.04362689245784598 -0.05246765646440656 -0.05335983170761342 0.02100098139933149 0.02532675293711467 0.01046487280141074 0.008672984254821164 
-0.03889086089296272 -0.04533386527046055 0.01825215852544356 -0.1074077927262406 0.0356620096976274 -0.01785933529115423 0.1203670861145685 
-0.05901180804780057 -0.05175522420480409 0.2464601141469088 -0.04822574598982518 0.002231436467822181 0.01188701768649138 0.037023137272651 
0.04499898781767893 0.1110845712208035 -0.04486267124293158 0.06103473338479674 -0.07623511001624741 -0.05764955458638708 -0.1223016116067105 
0.1288604348507196 0.03625605492663603 -0.1064781940373299 -0.1135971621790012 -0.06909118978649678 0.01159657130833909 -0.2774403185273503 
-0.04161705109758618 -0.1426057155169733 -0.1240583645032759 0.08936170245091735 0.0268068858111087 0.0417144175953531 0.1521788813903526 
-0.1277498418515042 -0.1858189619573172 -0.08229929407745441 0.05297295746141593 0.02170223369292626 -0.04357201862184353 0.2481302709451447 
-0.006024150948065345 0.07102531140032844 -0.1010508005950541 0.08773515988809809 -0.00444188571908999 -0.08850615693578223 0.05884049041533245 
0.01329721238012344 -0.03198104992877292 -0.05262656969150274 -0.005844135524617799 -0.06432157725647773 -0.03885311928646486 0.1834813627632671 
-0.0172104746701353 -0.03698916063877594 -0.06165163233346019 0.03483818137501206 -0.0443227104153024 -0.0009859797471604935 0.06023359520178301 
0.05084454189502328 -0.01285935329565513 0.06270691676787918 -0.111844885213121 -0.08178573364986234 -0.003771568333247651 0.09989766949190219 
-0.003862417555493512 0.08666720532609361 0.1065925582211929 -0.2176108438225044 0.07049011410904218 0.02050913991718589 -0.08975409060955365 
0.1879748691800915 0.02798677113637958 -0.157257456741321 0.02335127936007717 -0.1059549857764698 0.001782610215617169 -0.05299369809585242 
-0.02662066389223829 0.08207817423964922 -0.141569402063663 0.01695144473575398 -0.07868775135194279 -0.02609772273962521 -0.1612326014324329 
0.0126610763336274 0.1307865106539878 0.01351027254820271 -0.1137900178609716 0.06858417593890877 -0.0239340898025771 0.01281300426039834 
-0.04377289815871989 -0.05962779577626826 0.056134638668943 0.01666175736755917 0.008003535944845942 -0.005557564815871096 -0.01375715918178072 
0.1080797723133178 -0.0001091086870595663 -0.02263368271739485 -0.01804260535849257 0.01496428347787943 -0.02381348732605226 -0.1400133948372623 
0.03792589923338902 0.07740846890176234 -0.08082032545012575 0.04254186213312004 -0.02992965177025093 0.01463618530946866 -0.1263596251634793 
0.01092783610503446 0.09448601029568447 0.09798711923607369 0.005915406108252769 -0.05169412240970768 -0.06957327431234549 -0.08532835843215089 
-0.03271756586385344 0.1495157256372497 0.1067238861446584 -0.1796179259968916 -0.2075514306696473 -0.08856910775508138 -0.01507423614087241 
-0.08038462190074043 -0.02248632427877713 0.03502132108542545 0.06116272001967049 -0.1490773018327282 0.06388978713535759 -0.2039368886631046 
-0.06457666860706503 -0.1133133416943592 0.0755228310367929 -0.05413019276493071 0.1726612486772671 -0.05978915158901699 -0.3670829874502685 
-0.03750344184997893 -0.07359567156635898 0.1135744780301872 -0.3412698399090306 0.2542844723834156 -0.03476409038701794 0.05124914631659326 
-0.001677720321431077 0.001632667029353109 -0.08426298242644932 -0.02433032164793471 0.001058125482816545 -0.02915974179554927 0.07443909657152185 
-0.02715990124610005 -0.03794390167106339 -0.03061351337480809 -0.0072589802465158 0.02037042411010965 0.009450994920592041 0.08701624705041176 
-0.04495811498114091 -0.1173296812575276 -0.1041789956222185 -0.005600866406634979 0.0250987319612766 0.03841915021654978 0.2004534284483717 
-0.06500005302545692 0.02236056560419355 0.1078057996553979 -0.06406573922767639 -0.01374233044415037 -0.04471177079168126 0.06173768058497008 
0.04766193269011657 -0.04260273393478553 -0.0008696211474989098 0.03664074091170053 -0.07394800917687057 0.01834512908804197 0.06200701868325025 
-0.03758607997832941 0.1126083260168945 -0.1732198971777492 0.124730836577204 -0.0115374766393829 0.01288427612484268 0.1111025726920397 
0.1018931079065837 0.02308985497755581 -0.1042650669660894 0.1534593700507418 -0.08702555063673154 -0.1372077155169798 0.04820120058660664 
0.04206340490964042 -0.002763634471372527 -0.2275786052441112 -0.02247504411271988 -0.03138874531064019 -0.01519378928598254 0.1822583237651998 
0.05015436974066591 -0.05518904917466403 -0.0107635710793168 -0.1592915782360214 -0.04579445997217785 0.02395760808706963 0.1993742843417827 
0.04241511966622707 -0.00855261505617945 -0.007975462368115183 0.04608610641821913 -0.02104860336249832 -0.05275178046923945 0.02096959988886025 
-0.02249572066502533 -0.01511285773797832 -0.001608010307613218 -0.0375479177045337 0.04719285905812791 -0.005470974409873589 0.02329010239213013 
0.008508392306595034 -0.02879274780981347 -0.05557312522204344 0.1034203676796653 -0.0008685706208737042 0.001766941297943689 0.04732494777405604 
-0.001155880752669399 0.1433973829196091 0.1716171343343201 -0.09050376977261623 0.03162849773943811 -0.09090446280916463 0.00955855472001395 
0.00356387446797654 -0.06771806478157694 0.1187067568488315 0.1514357159567753 -0.2118876833680945 -0.1070941376610865 -0.1392726863239365 
-0.1624325818843297 0.08198750249279924 0.1034881904331462 -0.067019970246775 0.009842042113223256 0.03259759420647514 -0.2176609362779043 
0.1042303484674328 0.01382321718103454 -0.01259645606861626 -0.01151105969736054 -0.1614783143967455 -0.08356014391236928 0.144393384002703 
-0.05011098108486906 -0.02380090826431877 0.07729498998534144 -0.07371344782936853 -0.07305896260767801 0.004994111812767669 0.1339816692476573 
-0.07371922908951528 -0.06523104904920889 0.06294604343681863 -0.0828188447193936 -0.02728742436146452 -0.02400547164519402 0.181279925476049 
-0.03599853244068594 -0.07950613285493005 -0.02544998484136907 -0.1335929301299763 0.03520786612676244 0.02253624201327268 0.05175879495907761 
-0.0470682984735243 -0.003265060801646306 -0.08400072156264632 -0.06970602581863451 0.05863678852366778 -0.04187767436667827 0.0755184590667813 
-0.1292473360059758 0.065322202865495 -0.2053196171616107 -0.02177083765990237 0.05271881423575152 -0.1146949008171898 0.2270870647998605 
0.1361214128179179 0.01589495013022803 0.02139715258538882 -0.1102431026181451 0.03018240287413081 -0.01136710806065068 -0.07485958602017892 
0.03600864163214173 -0.07688630325892204 -0.008370103554335026 -0.001330313476984112 -0.07916495733634916 0.0501391576066129 0.2970682404257466 
0.01149320291500385 -0.02666607422740576 0.02394943135291736 0.002598844370983694 -0.014684164235094 -0.03815861693941577 0.09006379385775759 
-0.0421220322440076 -0.008228809287653007 -0.1041119361057701 -0.02751215276649401 -0.01983955134690011 -0.03311295324848174 0.1546551834002666 
-0.04621128832687738 0.01910953553775852 -0.01384247474656632 0.009562779693090976 -0.00123724053857342 0.01852022648384778 0.02943473956181413 
-0.009589294174707186 -0.01282251147344983 -0.02306057565972565 -0.00228554642431357 0.04076900942346001 0.001982818968259259 -0.0677727056176534 
-0.03838854386611522 -0.07787859063753921 0.0822587878098944 -0.1174239815948018 -0.03305098732751129 0.009195910048611101 0.08223258869669937 
-0.08370599499238596 -0.03141955909760847 0.06963845618787563 0.0407814389892547 -0.1100644446766938 -0.09818593297293429 0.04882571637691338 
-0.07952384411959448 0.05840352088830938 -0.06547461386192366 0.08840496107044615 -0.147581920401067 0.002043272339956975 0.06687400177583187 
-0.05304224413236724 0.160615482588617 -0.1674854419107907 0.1046127967584854 -0.16837892691405 0.07200983227354676 0.1443283842871151 
0.1153179346550002 -0.01650353407424452 0.1017242622891023 -0.007707696644485089 -0.08030855131869627 -0.06154923813832266 0.2390882660913088 
0.01883790279518853 -0.181164873858789 0.2534054806304086 -0.101324517047965 -0.1595476105256266 0.001293854908316 -0.03725890080653024 
-0.02931494089363362 0.005382219965266594 0.1529882319299273 -0.08576285689741088 -0.04617124492578098 -0.01560256561614612 0.09016431911018381 
0.02319981893676577 -0.05536670190972466 0.1056077663916822 -0.1492525974736032 0.01133190248184062 -0.004899111678868402 0.03979059414367072 
-0.02165254370619455 -0.0009876573565336855 -0.09652357023208692 -0.1249559780704945 -0.01944147544775138 -0.05878081518835402 0.2641924658918816 
0.06471476537157449 -0.04701444141984508 0.002487492663942652 -0.1190844641760769 0.07922311661666107 -0.1643523090414798 0.06222678074787547 
0.03535752729821703 -0.05414068103886389 -0.0829905906697274 -0.01645285678042308 -0.05960525745282295 0.01808398027136088 0.1049068742314856 
-0.01990789702572678 -0.08435258290033835 -0.05350072569022871 -0.004737319652304181 0.1292288998424067 0.04931092080353151 -0.01909237519791334 
-0.05100743973290209 0.06452116593737771 -0.02253722911067238 -0.0690097582837343 -0.03907469621367177 -0.01008700206414395 0.0633056842481822 
-0.03748084448763042 -0.1088459341095379 0.01803019485670039 -0.1604759832572951 0.05115340882198621 -0.01642932322788118 0.1714299326454208 
-0.03956701850056091 -0.09971408714302657 0.05741490330454672 0.0141436613413249 -0.001202604547568409 0.00631331053401094 0.07624629513618947 
-0.0117109062598497 -0.002788760516186663 0.01087350324474885 0.07421231396132048 -0.01435864672583284 0.005037758246674129 0.09676235569109568 
-0.08794163636271574 -0.009498135759020594 -0.0185243315644478 0.01435934913005325 -0.180230600052388 -0.01133435527757488 0.1879567044509677 
-0.121732351831307 0.198527762553555 0.07799127016268763 -0.2975607803240397 0.03620132286579594 -0.09412240605404124 -0.1185911725312671 
0.09384442739401989 0.09663932883761982 -0.0752950491336284 -0.09987899196896759 -0.08251406572240726 -0.01321388649676609 0.1540864458997629 
-0.06172713892202804 0.08652973689058945 -0.1416583273151635 -0.00341505858058391 -0.03522302255794953 0.02679696381806346 0.1072292322730173 
-0.03423374811347828 0.01388349699851862 -0.01548749050967027 -0.1236879089591538 -0.02384622749460261 0.001846499283170774 0.2798185583432161 
-0.01536720494226889 -0.07946780830208686 -0.03474567259740114 -0.03933479618925411 0.03321837932211386 -0.03352261600887907 0.0482239396329522 
-0.09154631624219818 -0.02939048540200326 0.05382345055281568 -0.04767023249170915 0.05858278058955581 0.02815237034126383 -0.08548673044082322 
-0.1223376085763866 -0.007491503983939749 0.09576432719269419 -0.1010389479846528 -0.01773049033007338 0.04477277404179261 0.09650647099565988 
-0.00825629343380458 -0.02896997256622987 0.09079396422679441 0.05844662997798957 0.04351211464685154 -0.0819098874038317 -0.06040659854561169 
0.2277646645112057 -0.1828479124416314 -0.1698515932834262 0.007804058732812849 0.1034325503538538 -0.03225203711636825 -0.06376404401767313 
0.04422256190010661 -0.07537902298899181 0.01483050398107603 -0.1359647164913975 0.08291520857388981 0.03917286079731047 0.09815766215154843 
-0.1078483866024689 -0.1324270029282859 -0.05649879194053198 -0.0108504280066947 -0.0367743985585316 0.04891581717528779 0.168495578405716 
-0.1178628347958812 -0.04883794737669119 0.02522206785095175 0.1073205536955392 -0.03837974002507052 -0.04215187989529413 -0.1159073781817094 
-0.01070992456889799 0.01545628943594488 -0.08718547623902573 0.03482791199799067 0.009076769630742157 -0.01554456267805455 0.1017436536014592 
-0.0302486852309225 0.05919884979095982 -0.1005095970709412 0.06296388157399305 0.003051866112912941 0.04482690497696613 0.05938041821585992 
0.01836216515596974 0.04989203446392219 -0.02551857133495123 0.08533806575682604 0.01684685974441019 0.0350464309729755 -0.02739860667085966 
0.1931794580425376 -0.04432265906256838 0.07107434889699847 0.120760125219051 0.05768269465093565 -0.02274573671303196 -0.2175703865983872 
-0.09184420830926192 0.06358300691141559 -0.04330905416547405 0.002385819093635647 0.05721805123384747 -0.0355905530055401 -0.004494910250109877 
-0.1300784878826249 0.06454409242894799 -0.1004306068869413 -0.09043085135870994 0.1359215923919074 -0.002358526343540382 0.01122596487836853 
0.06208731468281715 -0.1772935954779192 -0.1547599355093334 0.0007593560170759791 0.05078794452531205 0.02424126391338513 -0.0007794034984194696 
0.04606086856984234 -0.05857385906103063 -0.04908750824743668 -0.045941601865746 -0.09594397862778577 -0.06506350647367533 -0.0278118056939657 
-0.009408597235129356 -0.005090749083412654 -0.2108730339952923 0.03661689890899389 -0.0335547321646712 -0.04382224807020924 0.07829400797319346 
0.07663799992223602 0.02447271468944796 -0.1180603352078831 0.004584007847268005 0.02539687813426588 -0.01502568693821667 -0.1579518072534026 
-0.09479321557290288 -0.009215799636185721 0.1027839820866523 0.05362099869428889 -0.08273279079199071 0.03385024021312862 -0.1219188730959571 
-0.0716594193384931 -0.008080153981628903 -0.03241359961091179 -0.05817179826522688 -0.03714379694484444 -0.08249131599033674 0.151921777327208 
-0.1123676801753843 0.01152220049133316 -0.1476004530455914 0.1096978982089602 -0.07882647455337441 0.07772312106423465 -0.02391796074581429 
-0.09637489038304947 -0.05948725050293734 0.02847477857619268 -0.2079710430940091 0.03640668013050392 0.01747775894374571 -0.024163681394818 
0.1608308503172665 -0.0954351161226254 0.1428593024185561 -0.02309404638515489 -0.07044946862659977 -0.1084583607324841 -0.05237562756036476 
-0.0987332257844344 -0.08698392272495645 0.08279063762300098 0.01635836469907428 -0.03514966181194574 -0.05592241997770594 0.1101502183775355 
0.05765991220252156 -0.09700331024342444 -0.2017533208379696 -0.1981784548447331 -0.07836580402805608 0.0576791543545457 0.1555817507716987 
0.0009817676721360648 0.1034561089118507 -0.0905179821069501 -0.1496509357289995 0.0476542653136348 0.02960352982484421 -0.1995884025837208 
0.06157588310778749 -0.1286658415172208 0.08525361214877773 0.05117838610654156 -0.01918787617251573 -0.01440267377908434 -0.1590106207974006 
-0.02604357624385525 -0.05026264816131219 -0.1471327043052671 0.03187728540010595 -0.1880494146450734 0.1210812054496516 0.2756131535430383 
0.1733012590859824 0.03608015950668791 -0.03341683128986703 -0.04536748849845911 -0.1990159945123575 -0.01004588803984557 0.1032499114693985 
-0.1624818932747953 0.06326361901500922 0.02264502690718269 0.009391747686513371 -0.1299043758294756 -0.1104598056283885 0.1230382061373152 
-0.02336044475861771 -0.0441719944033273 0.1150463983538509 -0.01403456169954666 -0.09622255184246499 -0.1217729398058507 0.1744023861119531 
-0.06062651341912709 0.03419540863451091 -0.1433476277523822 0.0005251898030839456 -0.1634843895082241 -0.1345229711769426 0.3488000285782227 
0.04164457890653373 0.04374826896653075 -0.06335387679407195 -0.089923363746766 0.1138272427784544 -0.06067462674348744 -0.06253194489679027 
-0.006139056851597658 0.04122607897349555 -0.09604316180448927 0.03054799947263453 -0.03094241918121119 0.06735041678913807 0.09267956406976105 
0.1036370713712157 0.07022779929534242 0.1561609819258633 -0.2027257202692017 0.0373243197982222 0.05780980296283813 -0.05698008211555004 
0.120440919050739 -0.02885246636837253 -0.00135168373360432 0.04037099693656904 0.02147036939841299 -0.04771091414766088 0.01264270624331507 
-0.01692958478593746 -0.07418572518694756 -0.07747155290978487 -0.04049326056412174 -0.1042109176144915 -0.06851342684767728 0.07934807226215786 
0.152623385845001 -0.09889166371825737 -0.1267078249470249 -0.05584018544504321 0.09129225339214848 0.02479959966872626 -0.1451873359572878 
-0.02969412295475195 0.02693877388017943 0.1082013251839747 0.03359519080544318 -0.02199604057730198 0.02493460606454374 -0.1194565954305212 
0.1294276656193708 -0.03823264345555319 -0.04912069598624672 0.157819062542279 0.03193579533985622 -0.03706967831238805 -0.1685666340639819 
0.1524065247869959 -0.1268421114356926 0.0906440768728842 0.01699622465484247 0.02619399725938693 -0.04034024238091589 -0.203758342317227 
0.01793036224011141 -0.07465667559783774 0.01576812119330787 0.005834116969339474 -0.02414405861719984 0.01385918974587856 0.0329383691644529 
-0.04500493250226594 0.01782278925381836 0.04441614548704219 -0.213042319524342 0.02591456447689887 0.1060287754169641 0.03260164602439278 
-0.08522366765461149 0.03652105499742552 0.08425538541795974 -0.1045457185711402 0.03721459364558035 0.05307267447446529 -0.01554042797296656 
0.02770597462728732 0.02721218587202393 0.02699456906136399 0.167496052318716 -0.1364372840875263 -0.07690307183443262 -0.3208477111937401 
-0.1383026043693986 0.04912067343207269 0.07652755284579961 0.01525780757852383 0.01706955488360425 0.0009167025437646486 -0.1892301636976348 
-0.1194875482067895 -0.06108918247350879 0.2236009885954105 -0.04642305886273355 -0.1028467805095333 -0.04632073587104229 0.1542607244145264 
0.08509481565500324 -0.123930853428181 -0.04155070384811002 -0.07149679478743998 -0.0008008028303565907 -0.01884551970551719 0.1208934911067142 
-0.01267064623213719 0.09764933854987033 0.1891668792761515 -0.1661164543842583 -0.0133266438628918 -0.03955018930945929 -0.05547566518398932 
-0.0466490699835129 0.04320918935809009 -0.01502588686681855 -0.05220542808338606 -0.01058052768814633 -0.01239598819983483 0.04522547273245057 
0.03278187673983755 -0.04108999644796561 -0.009842125802132683 0.1367778984320256 -0.05579484815139086 0.04713207417640608 -0.03738100055435247 
-0.1657434180495435 -0.1237819688723491 0.1860765141065733 -0.01602393146658335 -0.05973686407839575 -0.006223255878414003 -0.0005122072792961805 
-0.04428578593603479 0.05015519208403839 -0.009977602629899652 -0.1708746393703367 0.02946890621739119 -0.09604876322987299 0.1260529967539844 
-0.0387903444386337 0.0388226258467654 0.2091795343461883 -0.07567807656312632 -0.07536243248053573 0.009456713158016054 -0.1315141791203553 
0.05041560015621131 -0.0628948159555536 -0.09372374744196771 -0.07201861755659386 0.07306100132035652 0.04400680054563885 -0.02385787865669369 
0.02768716483598347 -0.2354230957090429 -0.08592850987357485 0.04397265696333709 -0.004400516204698729 0.08091443339346258 0.1448528734714456 
-0.01259419602688516 -0.06286344746576221 -0.0003069816890849152 0.01645469310914612 0.07050197736057798 0.06859789295106328 -0.1721373085828723 
0.0091659603465682 -0.03251151964964216 0.003041395906042665 -0.08037179786795251 0.01698061246665285 0.002052898148113562 -0.009941073874343946 
-0.02570144697678244 0.04110993691376174 -0.07739035410345731 -0.0001730355913668192 0.06614636651472858 -0.007557246434221974 -0.04762554168281332 
0.06979658458986511 0.07052428426427479 -0.1747289031323329 -0.01872443634316623 0.08073113475600115 -0.04933829475564657 -0.1434435861123472 
-0.01507719759139368 -0.09827510247720282 0.01751197822477744 0.07831250186834204 -0.03736047005184717 -0.03806372066106434 0.0123043012041508 
-0.1160028806211149 -0.07991423118012271 0.0376553624069712 0.04200768940847854 0.1511516059965514 0.1040337878108316 -0.01995196835597786 
-0.02714026315335809 -0.0805998133197362 0.02572376461716346 -0.05020038354171887 0.05281173343518594 0.01794407838749161 0.0001584925239050169 
0.02599799488130059 -0.02597151298053864 0.06700320848707712 -0.06501926731274447 0.0179984750218089 -0.03039740111842145 0.05204243137383015 
-0.01634695107518042 0.05594124326170739 -0.03947713754128172 -0.02015475055417217 0.01144092233540748 -0.0273375824517307 0.03946070590264901 
-0.1040824867508965 -0.01888087108129594 -0.03348088176607636 0.02920700671941562 -0.03661907798736175 -0.03762920000746428 0.2099768968898255 
0.03433666182479458 -0.1161043973107447 0.01681716518249524 0.1507215763894686 -0.08519456052837794 -0.0203095252950673 -0.2061632487059787 
-0.1069206007133496 -0.1986276570307017 0.04330777442413509 -0.05642428863339041 0.03217972375493971 0.1120771455202588 0.1722289494257601 
0.03774091986321292 0.07682170958243216 0.13047723035233 -0.4446891783543379 0.247155064528076 -0.06561048065124948 -0.1061039878078153 
-0.02469133251063649 0.0235134768947747 -0.02957381393699175 -0.3000942630757659 -0.1870423430674222 -0.07955501264127122 -0.09082099516234321 
0.08462459399024599 0.1340000436471846 0.03584131952325239 -0.1661408146567994 -0.05336286218841812 -0.06908077565116787 -0.2038420608910643 
0.05749971046397756 0.1030857223870274 -0.04991034597568288 -0.07362898358968757 -0.02490830037517051 -0.04542791980775396 -0.129407950369745 
-0.0007534830922544893 0.1330412555121737 -0.02764801087305339 -0.03488324766652677 -0.005497935583811939 -0.05307283142696853 -0.05616031668479738 
0.06228575977346659 0.1036109094773767 -0.08814127310553745 -0.2523199596715975 -0.01406294034027503 -0.005109563503401824 0.1873003662994417 
0.08481541320711791 -0.05534437714244354 -0.06345407337275778 -0.006931365751170501 -0.1444062778341024 0.02440975141340187 -0.01040085230233981 
-0.0963234409128582 0.02678219953729353 -0.03203900016555324 0.05037157038347484 -0.1260062034850053 0.04454650250210075 -0.02334917034290362 
-0.1598503257115209 0.08504038810329335 0.2097851148451782 -0.02897226139740157 -0.1128379284728955 -0.1587031410931102 -0.07011330283992236 
-0.09049266698811272 -0.03664045289201025 0.1053198579661135 0.2323317459739803 -0.1475943842660025 -0.03928779013104141 -0.07415398167363002 
0.03973225753301436 -0.07122932223576156 -0.0594238142225941 0.1214053008806932 0.004134879430165325 -0.007529152821981034 -0.009356935422315268 
-0.01073330622870175 -0.03577737603987219 -0.0204907999830137 0.01838463283916793 0.05500230307445381 -0.005042245775547629 0.02062129185800821 
-0.004205699951310609 0.004706283606688825 0.005995664277094032 0.03836030035575658 0.01130027916200628 -0.01334426046475866 -0.03317642851010443 
-0.002206525659524903 -0.04514335582243902 -0.03893406546145112 0.05471121045203146 0.006551747148302149 -0.02312095364698446 0.01154287179831656 
-0.07542232933586057 0.01751107976178461 0.3632925478537465 0.1516980747046703 -0.3327407059641768 -0.03625496078724678 -0.4366435250161671 
-0.1006480096487161 -0.03033548261468837 -0.003728888071428715 -0.03550895371602458 0.1597792513060435 -0.04284984393106778 0.01266766852880207 
-0.3631001891236283 -0.08477418783070606 0.148928158092069 0.006576789939841718 0.2906795518432861 -0.04701233522257844 0.1793391862611985 
0.001931810559050863 -0.1855154732597398 -0.0932347943391796 0.008172294686696419 0.2292908453228403 -0.004560007362301543 0.3418697133677602 
0.2228507528440193 0.06892964450041282 -0.111668796421598 -0.01412528754709813 -0.0183083378794128 -0.08577037989571014 -0.07446450345790841 
0.194522919197458 0.199227099065735 -0.2060282733904418 -0.0504664804724055 -0.07017590536542852 -0.09622284279300022 -0.1044090072696989 
0.3944266356866851 0.16173619277667 -0.1878633360449865 -0.1193120269928345 -0.06378360095714249 -0.1517536872028244 -0.3623308950921416 
-0.02551428384592136 0.09345114850277256 -0.03433705277310797 0.02015112644882198 -0.1218710885362783 0.04617439947433044 0.07574868987452364 
-0.1624142005263816 -0.04944718456418661 0.2824729985609158 0.09101480472143664 -0.3724897538389469 0.002848511267688223 0.4616043029896405 
-0.3174043260312358 -0.07800860212744333 0.1853407418210982 -0.04025851393790639 0.1783247424031579 -0.05718911172611139 0.1373110096781439 
-0.2658542876095127 -0.1291892379239774 -0.1394524822690647 0.3069673942324554 0.1915806963301081 -0.0587529657291839 0.2569635515174846 
-0.0654675553517213 -0.2126893586011115 -0.3839507801313881 0.7614241972446764 -0.3420939983134641 -0.04450514663299168 0.05168979045114983 
0.1805361633569177 -0.03982716279195721 -0.0605410125689103 0.05709975900918953 -0.1899204823054506 0.04734814378655545 -0.3857186564323088 
0.1647565187250983 0.08351619739930326 0.1007071624495657 -0.005341937766898269 -0.2140359688144649 0.06858756001560513 -0.4452460588411405 
0.1160772396526405 0.06422951743764252 0.4404575882825227 -0.1989826004470796 -0.170049659625664 -0.03905575460540353 -0.4226118269136797 
-0.05317154135308803 0.2934850670112223 0.4857492588971585 -0.3965921061254423 -0.2095239816977655 -0.1035624528111019 -0.4548095861650207 
-0.0426045726995543 0.2607094255011294 0.1288462961142137 -0.6236843646240402 -0.1341167913459058 -0.2240025015726263 0.1777949999054896 
-0.189003371589183 0.1010651634033758 0.05120702565443759 -0.07878199626964653 0.06500533682032374 -0.1642679277043485 0.501890219020707 
0.00699093150101178 -0.1077682746360167 -0.02444492831529832 -0.2111922110436165 0.2252671488356688 0.04163669881209704 0.5474219257228159 
0.04103606197492011 -0.05093109608058669 -0.1408867771551965 -0.02013390332359693 0.1593175158768491 -0.06252817441994714 0.2275088847996086 
0.05107690099865229 0.004815163661654285 -0.1591030215806243 -0.06647130517260443 0.01677987269652754 -0.02133601629210388 0.1453658430580026 
-0.002286699323516834 -0.08353148426915842 -0.1959824578413186 -0.1129232326423338 -0.01695183752487408 -0.03160179083289992 0.5188075455604336 
-0.07250611289577794 -0.05240919119409497 -0.1157627608735623 -0.1991844511159955 0.05291001501536457 -0.02988544032216556 0.4322408657748916 
-0.1048242300510779 -0.07747235065963082 0.098180280009628 -0.0976008009908146 0.07032131950201544 -0.002511126617955498 0.1852297533086351 
-0.09467024841069011 -0.2158779660098642 -0.2533032949103416 -0.5531768110878408 0.6529491683212388 -0.05307204640039832 -0.1680437888346542 
-0.1419809677842645 -0.2775250155966157 -0.371924284563364 -0.4325324586320369 0.7443162698819537 -0.2016478396084028 0.4605670415000281 
0.3498323410747837 -0.190820272463421 -0.8170276810533883 0.8525497003077478 -0.7501275956487657 -0.3772892231435205 0.9495926378639732 
0.3835715037988355 -0.05523424626099757 -0.4001110579561487 0.7747748705275702 -0.6428088907431662 -0.1854304447123422 -0.09058154560271887 
0.1812827300232054 -0.03541643027628772 0.1646284574813995 0.3197599039278992 -0.3137841146329872 0.03882367116101148 -0.5492748875756426 
0.2006336440048688 -0.07839548680983403 0.4434257164246015 -0.0582625094401148 -0.3366202625659048 0.06961414042787864 -0.5948153591355497 
-0.04123554028829843 -0.05626633026308564 -0.2645916284461081 0.3803337069928317 -0.06186011695205044 -0.002975944562733303 0.2687449397514734 
-0.03992963814210484 0.0461302371446389 -0.07388302079820606 -0.1281220700675204 0.05397353471775007 -0.005086668975962182 0.2799299852803014 
-0.08775375659880257 -0.01827016209561548 0.00684548216638283 -0.2234369733269715 -0.0554390410055472 0.01386387850572125 0.3081956444781657 
0.006279994857175976 0.1968912326263567 0.07055595865433419 0.04508471116001243 -0.3090637905973212 0.2195120237872712 0.1085618925222537 
0.08536464474260509 0.1635084568785993 -0.08899572817179575 0.1624420235726044 -0.3210485632369335 -0.004197712306732463 0.2061815174940416 
-0.2336020032963377 0.06808422100180404 0.1662160425835917 -0.09933399747612892 -0.01528239916558542 -0.1145947380468938 0.3499225151159976 
-0.179259070398518 -0.1050240927150093 0.2747856131392988 -0.01821218858881784 0.04239021630627563 -0.1131762781964578 0.1044164905447938 
-0.1219188944883094 -0.03196248334212489 0.494970711811861 0.154519252041066 -0.02365996007022739 -0.1544570064609937 -0.4862057083089876 
-0.2007970015549464 -0.03121241099696941 0.4794414864129401 0.03978844798115922 -0.0129262568700015 -0.2185083099379102 -0.06618184857954636 
-0.001051746786886696 -0.1501951705835799 0.03057275588804717 -0.4725103925516811 0.2841218425148883 -0.02707839639750309 0.3115220755097561 
0.4932598553527697 -0.3070576343912049 -0.7841451609892853 -1.051013648397252 0.2999582618101889 0.07954462234313282 1.424761686198302 
1.030244949875805 -0.1540966917851632 -0.6107821361692691 -0.8752876965066245 -0.1194052922333012 -0.412551270120868 0.8179820871124569 
0.0542436025701597 -0.0135250465851469 -0.1143647647244365 0.5077827078774768 -0.3292173677681927 -0.153760590900727 0.2622463716123821 
-0.09560048560407838 -0.09044657337610164 -0.03648294055359887 0.6310999595558917 -0.2004171215865487 0.02584934767661838 -0.2781001688365907 
-0.2358848546089162 -0.06330866146614803 -0.1468525768437643 0.6957548408895784 -0.04172507117479152 -0.02907046498463115 -0.09724009577489068 
-0.02353660341575233 -0.01645400209966429 -0.01142066522218172 -0.07656588524427063 0.04800796498765069 -0.05787831667781191 -0.009597401987680054 
0.07112451922410283 -0.06019247682142038 -0.07478464055521097 -0.04648389541023516 0.03032136547657324 -0.06201537778787292 0.1455002265655219 
0.08444420027540345 -0.0977684815390569 -0.1166255354086647 -0.04684133925772952 0.09956399526622677 0.003257082352216073 0.05983771976601165 
0.009026229398641681 -0.05550207654573053 -0.1470219527995582 0.2972750119771059 -0.07392219925839558 0.08618362447791479 -0.09769311640553228 
-0.05820811449434691 0.07844882730801381 -0.3973841472255986 0.152236080932356 -0.08182377507853311 0.07357132755756729 0.2784554254610444 
-0.02441403132864837 0.1480094602445332 -0.3396011209513913 -0.2216672308997633 0.04680480167265978 0.1341788551010709 -0.003037317049380747 
-0.1355319846387336 -0.1355227979054009 0.1971907668949155 -0.06428721509725485 -0.0380932920221737 -0.05970884689329589 -0.3239483873292893 
-0.2427965056590242 -0.1597831809667479 0.7950072266220302 0.1567609282835182 -0.1151934408757639 -0.1518700271814918 -0.4495341949795292 
-0.2674903120488161 -0.1625415956894098 0.6968760723490974 0.1135026663757655 -0.22421855235143 -0.1806873585701247 -0.4233031006752581 
-0.34860362784999 -0.1511174208401745 0.3942968380515442 0.1947681975079037 0.06972624026087273 0.02083462613127251 -0.3393397932330438 
-0.05529797797627412 -0.2897651496916389 -0.32735119312558 -0.08633732436087627 0.0303872804170186 0.2576749135622433 0.07269627980187694 
0.489318132832658 0.2795291050335431 -0.2419541764740242 -0.2954277933021239 -0.01828364761098324 -0.09317163137509522 -0.06040562642292606 
0.04610352061562123 -0.04782659176733518 -0.08638272965980233 0.06646815991828592 0.1286550617739071 -0.1687085755151235 0.3802867181217253 
-0.027277408582006 -0.06190025481540597 0.05954385321907553 0.07224298477113972 0.02402319933556693 -0.09841209451234263 0.2924389118412201 
-0.05206832843945077 0.05085796474656362 0.006323526347166523 -0.1440156239792583 -0.01191538942918023 -0.04926225908020965 0.232150688603092 
0.008933033285661272 -0.08021017819415935 0.02330379034224363 -0.3002949077864229 0.03315128131844964 -0.02931899542705532 0.3879796167945866 
-0.0001658779887502906 -0.1618911771084903 0.003853713648033383 -0.07900278182005628 0.04000028069509187 -0.00721294308580587 0.01134257552987404 
0.007535825800174607 -0.06128795685712236 -0.1006083538177058 0.01020268498484989 0.09441025583312521 -0.006070359085859359 -0.05123183546277767 
-0.09017318836829059 0.001720894695621799 -0.09504581586473707 -0.0546587035438613 0.02792000107835759 -0.06073476240340757 0.129136182317591 
-0.05349222317991232 -0.05419459136718345 -0.2616122716134492 0.06242384388680481 -0.217398841497953 -0.0630452480582656 0.1889809978873392 
0.03882087483178454 -0.02536938021092361 -0.1804064341892743 -0.1882861426386484 -0.07225385252573438 0.0376330685016496 -0.07824304268154962 
0.002544311399889482 -0.002627152638099339 -0.1622074462370079 -0.09261175011327295 0.03447922909660008 0.1388489484392155 -0.120580433042642 
0.02127399720809141 0.03101489950477738 0.1480204583894744 -0.2285069225902855 -0.0380243087419077 -0.1574426365761462 -0.09579736502082951 
-0.07359090807140516 -0.005757531862390353 0.153168439215686 -0.1246528354677791 -0.04841383287838759 -0.03451947932424337 0.02732641702233612 
-0.0208220631372652 0.01059391984354181 0.136254195607838 -0.04057208836701625 -0.03475893269441823 -0.01467327542098388 -0.1135428264426268 
-0.03650244698594517 -0.0184779777395418 0.1071430187527651 -0.1011676025745129 0.001385958552199927 0.02703485157195324 0.0543877057662369 
-0.008956868209109108 0.1067405608577747 0.02241721143408096 -0.06609858694452463 0.01246639614290694 -0.02703829452120069 0.03475439423207488 
-0.01936278162726899 -0.2499284304235726 0.1343376757630683 0.06880223466473877 -0.01390835595555192 -0.002492078621642961 0.06451246877136245 
0.1945471367127401 -0.1962344024378999 0.05246389266487778 0.1039352390717925 0.04659655439008707 -0.0174202860545727 -0.1287247506037263 
-0.1166122926824609 -0.0008564029388596526 -0.05805518790587268 -0.1448928746403504 0.02455212406149475 -0.05894153610155823 0.3382272796447788 
0.01872644121160528 -0.2239557271877887 -0.05825566547510014 0.07809579987355814 0.1067099014682776 -0.06370942443952009 -0.01601120388369631 
-0.03178150792416606 -0.04687107044686462 0.0004213020108031842 -0.003534560221358225 0.02752522299293645 0.01702414068400224 -0.07888342128785884 
-0.02264055581249843 -0.03021926151805764 -0.003546939871859559 0.06383489999215711 -0.009321535858076161 0.03665128839237276 0.05202624790500011 
-0.01326340652572051 -0.05852767198827975 0.03263744738813167 -0.05174343459165228 0.01648638492477072 -0.006044290219415768 0.1477315964737429 
-0.1575640613510657 0.1715995441696906 0.07652367018863705 0.006699680113289671 -0.04316551003065398 -0.09984257061325551 -0.01264746636176434 
-0.08969730965133586 -0.05358134162246447 -0.03977510244521096 0.2849644022835878 -0.2097053421606881 -0.03074783425200734 -0.09383376668827562 
0.1518736674686667 -0.08722398595095024 -0.07632276759441335 0.09482943722940547 0.05551948306635234 0.02009520165978804 -0.1564111422406974 
0.005646054836601481 -0.02684896676532957 0.004980388568654129 -0.003390374039341522 -0.04747126477505103 0.02863687502071665 -0.04694250168080937 
0.06843621517122966 -0.01793095142455792 0.03049019328392712 -0.04987343303357292 0.009859041791582153 -0.1129659862198236 -0.04563300836513468 
0.01467840210497923 -0.0542719778695113 0.009788748990529332 -0.03212791713202547 0.01626020481112789 0.008552708575791419 -0.05055845576111324 
-0.08024997648704303 0.03154034832249696 -0.04331096768000312 -0.0043244915613371 0.01629509194031636 0.0003405523497964928 0.0805414842184909 
-0.07019000670016368 0.001187693909394423 0.06948123654813568 -0.06478073801485049 -0.01316043510567725 -0.006360048306364765 -0.02591200908475376 
0.09400363519514007 -0.02662071108720413 -0.1029244159847027 -0.1173965592312286 0.02876771001608149 0.02317249199851065 -0.1195183029673883 
0.08730867853008584 -0.1054742130866576 -0.006740135858694784 0.07646656302440538 0.03363105333438383 0.009881662464569313 -0.07275790471360692 
-0.004044311603275954 -0.1533485448185963 0.1281873846125931 -0.1133600619419684 0.1446751790240506 0.06929500587473431 -0.1572576713330313 
-0.0575586921867521 0.02160180998071176 0.03006207932664938 0.1727250579618972 -0.08258826874050566 -0.1285603953659991 -0.2141162811588347 
-0.1148328791933944 0.1217998161312567 -0.03218486045593008 -0.1901429408979351 -0.1025305582385326 -0.01911059505505315 0.065916882619071 
-0.0437733224354615 -0.006148327018002778 -0.1245312569445121 0.01003547708085449 0.02040797108603981 -0.02636986099898536 -0.1864271715958188 
-0.1144698020313714 0.04780535563957748 0.008426171586726091 -0.0550525484882043 -0.09156388628437448 0.1528540673688965 0.222335782309008 
0.02856760811321721 0.2140834741911768 -0.0482933244144258 -0.03435049674818994 0.03070205335335392 0.0176747511659924 -0.1916373529028211 
-0.05723697658819591 -0.01136679914387265 -0.1191942671391452 0.02161659126851197 -0.05023688275448622 0.01864130347152928 0.06541823779440188 
0.06657971446413961 -0.1862620439001801 -0.1340470757732794 0.1092188097826871 -0.01466028820380951 0.09160121363339961 0.02020891325779723 
-0.03757076128793559 0.02533695251962085 0.05121019994859003 0.1747487423309047 0.0555826601035022 -0.08253510284348882 -0.09826401792082258 
0.1007267912259645 -0.002474841819445686 0.03962448910655678 -0.05225752351301932 -0.1113780194758832 -0.03980269713789937 -0.1361498692289878 
0.0824451984835015 0.09511815207331351 0.003325750389143165 -0.008945233689953765 -0.02084085459399361 -0.04557843407555117 -0.04774831026690948 
0.0117034586111304 0.02919891232651329 0.1010509395648173 -0.116595647976107 0.01174697535581317 -0.09315515655271714 0.02104446438439924 
-0.05607741491475973 -0.01910832509830632 0.02534965482918624 -0.09461601388597002 0.04027639462908038 0.005267975629218354 -0.1300771334883789 
-0.02635745176820993 -0.02429225493535393 0.01230001134616462 0.01671062638767278 0.02217496442500392 0.127292775658607 -0.1015801824732392 
-0.001646615970487744 0.04846857602635956 -0.02058832739063656 0.01927080534932192 -0.01116058939901714 -0.001397923013904603 -0.03186863152790492 
-0.08513707282566052 0.05216303213294485 0.06388164322953284 -0.08508849493959217 -0.123397870325969 -0.05643336128965262 0.1347184952141458 
0.09707900622453539 -0.01595715901163426 -0.008183868079841929 -0.1147504782372581 0.007836677281312706 0.008571606110734606 -0.1093296628052629 
0.1228645115734526 0.05017037564562194 -0.08562092138944757 -0.0643261471872003 0.1519033839385056 0.02620392802863801 -0.09138592287523176 
0.01514859753581066 -0.1170978268747649 0.1065886382809153 -0.003968527134846509 0.03440557195520137 0.05719924916299718 -0.07360597984761975 
-0.1304491182816905 -0.09580047887150339 0.1072070597734285 -0.03438565202984943 -0.06261277490260735 0.005453218072951851 -0.02586488013870893 
-0.07137080184351863 -0.04638520407709779 0.04483022388265564 0.05137958315238217 -0.03939339299439976 0.03062407866960801 -0.03918655792947214 
-0.1342255256632037 0.03528771874407788 0.003640504424797081 0.03519797692419434 0.009677342482942107 0.01867914796196974 0.1317115147783239 
-0.05641529176475874 -0.1543552337754633 -0.06688095459965328 0.08391205399433277 -0.02905079423205709 0.08051173780874417 0.04703853003550908 
0.008008712375154511 0.128908056264821 -0.1011691762315453 -0.06858034936808002 0.0249954833711211 -0.01941378322999995 0.04923144952143659 
-0.1610498765207126 0.04930717397678475 -0.1192498876006964 -0.1062984101690995 -0.03044447484297517 0.008895957248155447 0.005910668082161346 
-0.0479869234442107 -0.1124317870351392 -0.03218155258013392 0.10142237859687 -0.05633721933509692 0.02342947212056098 0.00765600708141719 
0.02832980886955732 -0.02545337727751269 -0.07205521464379458 -0.1475739315192904 -0.006768598390129849 0.00808835638604654 0.07650601855052992 
0.02014289450213106 -0.03221967937822979 0.05431076915566798 -0.1403926337254705 -0.01847714795798077 -0.03141654269966512 0.05057407018380829 
-0.07575958232593033 0.06821320089092443 0.1229020476815813 0.04861321621550983 -0.09030163145744007 -0.06479289579253231 -0.04149059266685445 
0.05511250410140446 -0.009689133895397217 0.05745369864536904 0.09875354494533692 0.08065498583899118 -0.06020268811643673 -0.2412857176625756 
-0.05980004180271476 -0.07435011065155228 -0.1082598522272686 0.07798787309170317 0.02049028152567925 -0.04676812499468419 0.02330182488890541 
0.1047696843570642 0.1452571927381286 -0.1909034718168023 -0.1479081100841231 0.06885858431908599 0.0248248516345635 -0.1266627449555502 
-0.004696887781636089 0.01013938362859583 0.02534500654690315 0.02871488575930685 -0.08332376174514615 0.01087286565904906 -0.2098052995188862 
-0.03642757156278124 -0.1295806067082869 -0.08670321268236882 0.2717001216984867 -0.008014424417769679 -0.008722181607482345 0.09787646543988215 
-0.04374118028649168 -0.01657087867450176 0.06869595452040633 -0.0424780053300807 0.1002667008502028 0.02190020554342902 0.05491906716945003 
0.00780770583605674 -0.08513040947272156 0.03242077628699077 -0.1057586313670716 -0.02476301300600822 -0.02315900150010013 0.1480670713450799 
0.01894349518926472 0.02577831143918463 -0.02621423067691262 0.002600073315242212 0.02156298522999732 -0.01237791154568411 -0.09207644986840362 
0.02585863351072907 -0.08066273168366843 -0.03507050216939545 -0.08744983234353552 0.07553991096707906 -0.03221561901718663 -0.06680520837488113 
0.06270555865400972 -0.1481745395139498 -0.08717376784539203 -0.1088651321572199 0.1239632998629376 0.03981438460438427 0.0128389201041528 
-0.03666579393138866 0.08110780004610717 0.08796389708297712 -0.1674996765239699 -0.05944752579132625 -0.0577409869221089 0.05932879136232237 
-0.05123321972990327 0.1506692419500759 -0.09841609520538012 0.04377699265155954 -0.004811439086126036 -0.05316672995401676 -0.1491180303284354 
0.05446586399194658 0.01361757047322052 -0.1154002615767806 -0.011470962443743 -0.04851758467314211 -0.02817521442129757 0.02580491921932123 
0.05586356765614113 0.0062254520499812 -0.03928977524874683 -0.09001142471858327 0.002583360641250787 0.01765674624655049 0.00905175728849204 
-0.02389560409462655 0.04272638771499787 -0.07276295252216543 -0.009180188751760417 0.00214474572155766 0.0001040958413879416 0.1119826687802685 
-0.05132439595371244 0.01452948510280746 -0.09902499923177216 -0.0250626993625375 0.03909998576361235 -0.01183155141031077 0.1795592413849739 
0.01246944908203335 -0.0005959316060215831 -0.08277050288122356 -0.08378020733756356 -0.1147219157447482 -0.1746125171367037 0.3108272900427759 
0.09429695699363166 0.03660496553782518 0.05275899656498642 -0.2864038051528942 -0.2424668840761361 -0.04192151692974206 0.1050452493045006 
-0.1446972918470593 -0.004825043045904686 -0.09654637865290561 -0.2852096054806847 -0.0113200892611749 -0.07864992771347248 0.06463978291503593 
-0.04562883444075953 0.2303859962372766 -0.1210128578584749 0.1836023253178798 -0.2280674265088855 -0.1936223595064117 0.1525913503694339 
0.02258184551452371 -0.05962638269357751 0.01189876058917756 0.03879966848714241 -0.04214000200911457 -0.02497295488616628 0.07230015039250819 
-0.03170305616796446 0.02399321345208941 0.002121193694017234 0.0943141898515019 0.0226623428049414 -0.03862162451050704 -0.1544520183304519 
0.08443751767757497 -0.06327570066067277 0.03792309914381923 0.171194083748049 0.01373819917755602 -0.04388207393187028 -0.1225142700453504 
-0.01488970281125767 0.09603432010457227 0.3047700752449274 -0.1589846189659031 -0.2102791035095518 -0.1137426575906468 0.2266339831809238 
-0.3445555849648687 -0.0902597045876956 -0.3397877446384243 0.1871730976533885 -0.6351930645764804 0.2929355379399056 0.2071390264444289 
0.01960754220315046 0.1874644556405677 0.09186054804289917 -0.1535459377580369 -0.08573630627836423 -0.1454046772090785 -0.001536330689867643 
-0.1935387796890903 0.1078754892328435 0.08827697285743939 -0.1613293410937111 -0.06393233583583313 -0.03292693961601113 0.04422776922925154 
-0.0471694463231257 0.01305643381843022 -0.01755478063933725 0.1040223092182118 0.01100305992622103 -0.05456533351067405 -0.08420314824288216 
-0.005044368080207128 -0.02331147501518278 0.04430812155186867 0.04181052297316677 0.002100584987054688 -0.0184544075360474 0.02906850814408347 
-0.004286160714605188 -0.04789628994018427 0.003804287280156759 -0.01962763847602674 0.02225833636361628 -0.001750918646728393 0.06728219772736162 
-0.02015851067613919 -0.01820484722708205 0.03196746599867015 0.003679454492376583 -0.01814758376502473 -0.0008254014357261376 0.01128139612992392 
-0.1321282917187376 0.008102380091395189 0.06281098676717385 0.02084250176789681 -0.08026276600244708 -0.03320980406575912 0.1385756413683533 
-0.2124993168437392 0.1049306039326094 0.1798403143566275 0.3202183212762726 -0.4581169930127198 0.0302941401941238 -0.2086016688556874 
-0.2175277171942324 -0.01196670923683839 -0.07607975226264707 -0.1346272224592517 0.01518596384804827 0.06738729833541328 0.1475258574986714 
-0.2156637619381606 -0.009108391218591192 -0.2029961924354107 0.05385278087602108 0.06819022115498961 0.04748406771156018 0.198781500030354 
0.08205855332045511 0.1701445954861179 -0.08514658510839848 0.07103119258479719 0.08573016062678068 -0.05456764459736714 -0.2770046125729351 
0.2087479397679833 0.06894288449475233 -0.1247218783639672 0.1699959195434697 0.1457503740385072 -0.07607967153037221 -0.2529286907424206 
0.1324728531781804 0.1257600449979012 -0.1054716500190349 -0.0426627491422527 -0.04037268853317013 -0.2443931650231506 0.1819588272707288 
-0.08067374956625158 0.03168516839913265 0.03940842818349879 -0.1037102289384499 -0.4077216499000296 -0.2434805739718595 0.4803672897921508 
-0.05281262734014601 -0.1459984751030144 -0.2853509511332772 0.5937581811453871 -0.8315114923740677 0.2698478704863857 -0.135613768562787 
0.241050436279658 -0.310832705352323 0.06477526592588498 -0.4284846962868999 -0.1350907101481455 -0.006709427370660851 -0.07300887962711186 
0.2080593625690711 -0.2415687061864076 -0.02048183715875634 -0.4950125149398498 0.5422552364396013 -0.1659108496722029 -0.3105016942687494 
-0.06242485514798375 -0.1348844801100201 -0.05143048259296845 -0.08611640411837479 0.2715362286271988 -0.1364808774991423 -0.02672970016645928 
-0.1151054817378651 -0.1520726921550198 0.0216215498839534 0.446294542791728 -0.1242988266458666 -0.04148412470489795 0.09170618726852273 
0.04568548081341142 0.02332377233236797 0.138802255517043 0.1509275626357666 -0.2014177138838796 -0.01507910926456425 -0.1545548342931302 
-0.1585137147017009 0.03242675487018058 0.2857736978570284 -0.1670286462424867 -0.2593234612887927 0.1440495968359037 -0.05988697839804524 
-0.2737123233880064 0.1326130673211134 0.3790703296351325 -0.2898807950720306 -0.1241570225019022 0.2784575144943508 -0.1630985753482261 
-0.3004140401950375 0.235932650193822 0.01943263621004397 0.2996897963619969 -0.2556761096592739 0.01585113503956552 0.1082128251005948 
-0.2921564283611991 0.5763902393138923 -0.08347889521630786 0.269908922390954 -0.2445696294996853 -0.1231950522528906 0.04735592744754472 
-0.6944271306014064 0.5123207812872465 -0.2720149224027343 0.3453085618692102 0.07601215643116406 0.03089838673859258 -0.0449180900261975 
-0.5338500999342145 0.8760473565045455 -0.3190824875131961 0.4041921110776228 0.07901967374198121 -0.1572755348157487 -0.2744463111943103 
-0.1471023003407423 -0.01522197077878401 -0.2778214416391198 0.2556882375737544 0.3112027034650984 -0.1439532068538066 -0.06156819621848564 
-0.1320810879293223 -0.1722467825610335 -0.3411584560240263 0.1270741446549135 0.4488941157423207 -0.1908064522250933 -0.05426298388577057 
-0.09845404144716764 -0.0433091483472685 -0.5909939921991914 0.143849118554385 0.5313121970119005 -0.204633867861761 0.270650044832999 
-0.04296183798605722 -0.1519670876886346 -0.5989116272038081 -0.115664067356248 -0.1363631084573009 -0.1157700602132543 1.128321557157415 
0.03168247313437943 -0.1886021343491923 0.06890347562611382 -0.771051761605998 -0.039546687857895 -0.2164875271561821 1.04159424107584 
-0.2096850798347945 -0.2211554454321449 0.4443854468276266 -0.898142391818525 0.4063128259312432 -0.1123809031407184 -0.1293425173471678 
-0.266911738728793 -0.1493843335539506 0.3736778080010807 -0.6835877711237075 0.42648607509892 0.1571991873461424 -0.1830100252112938 
0.2746150646973178 -0.3398925212949249 0.2605806021840092 0.3043261802630357 -0.4951966721765587 -0.173220007365406 0.1344508192508762 
0.1231280935655804 -0.09173579322659954 0.4243806956097325 0.3819748478415303 -0.4250058580687549 0.09537373886840297 -0.1472312707379473 
-0.007387372359921595 -0.1000284091106064 0.3826281415742984 0.3083899539630411 -0.3006633590267444 0.2043369883825289 -0.3162801534516965 
-0.3084409158956188 -0.0186405190175745 0.2440269310610506 0.347821958134051 -0.2470111977793437 0.142084103984196 0.01263351064017876 
-0.3252984663846792 -0.1667629195583735 -0.8069690689428402 0.5274861607886627 -0.004561895338642421 -0.1183086222891892 0.8732366368724604 
-0.1358800901911931 -0.03429828540704428 -0.457575262205549 -0.2665382180064036 0.149669624794755 0.003020155162106217 0.9209459516344641 
-0.2899779336771211 0.08145185946928751 -0.32615830889669 -0.4543696926138958 0.1811262855214449 0.1687421716847664 0.5405292825225728 
-0.3735867619177088 0.4409225863943944 -0.3138145359110657 -0.3530261179703451 0.018358039511958 0.06851064558828157 0.3783311849073329 
-0.6042251717499773 0.4322670329178956 -0.1438819619392016 -0.2818181964489276 0.1645739000077027 0.03122651532783254 0.3332160923964008 
-0.1792243335901476 0.1202687700219212 -0.2006056387961459 -0.1301399660005733 0.1504622899187993 -0.0602575625758545 0.4235677560309344 
-0.1958193521560015 0.1535842085453023 0.1860052739143526 0.06645897208504009 0.0343654734806258 -0.1762158363149197 0.5530133833718028 
-0.3401770589253529 0.3218648676769381 0.4917452223349705 -0.01360843195191507 -0.2943143399415586 -0.3482550330091219 0.5288726058968598 
-0.3157946704811568 0.4049058299373887 0.1723051626943139 0.2965952578621245 -0.117234673080941 -0.3300887924252836 0.2937737546489062 
-0.2456057625565277 0.1235219425171537 0.2592325791215307 0.01107270099115257 -0.01171682290608141 0.3393291636504134 -0.1168561850957427 
-0.1322162929609321 -0.3496602333831559 -0.003816530347917974 -0.6260877303933777 0.1447263316171856 0.7651068818797679 -0.2005802679448376 
0.7354846267640791 -0.1200369159550845 0.5796052613697923 -0.5501224750972282 -0.3659135469871516 -0.1349574353652289 -0.002381044628815253 
-0.06128317228056947 -0.2579782375201718 1.087501089777408 0.04481776930391947 -0.3891928197873444 -0.367481481983418 -0.2928504696977734 
-0.1953586692328323 -0.334137254230076 0.5124961576963948 0.6131938601771991 -0.3956106212599479 -0.2609349060089104 -0.1131692815309728 
-0.2491290285910562 -0.5136670344466131 -0.657619030282495 0.9534252872946227 -0.3506688067872061 -0.1163378253033836 0.5490681204129274 
-0.1169075975857881 -0.2717090748333261 0.09907220705503919 -0.04220311040074974 0.04526472537985959 -0.2542856230560601 0.5571670675293278 
-0.2627471158179882 -0.3780157621330271 0.0129317625375292 -0.1988093017617337 0.1768562923306917 0.1044632594472721 0.1450910486009633 
-0.117501151408334 -0.2955001938052054 -0.4113026919086855 -0.3699167191370971 0.0556531920556602 0.4084034154731663 0.2643916965519137 
0.04955877403169581 0.05230878436072186 -0.4177691392942565 -0.1932276065052817 0.1600413786634556 0.1532813648334735 0.2364189727577493 
-0.1836051433057897 -0.1013248172592704 -0.08780665955130576 -0.09841277806905907 -0.04761074362339714 0.07705089284292317 0.6727275615887003 
-0.06266313433347198 -0.2772855515149991 -0.01782354676627798 -0.06309823390558819 0.1210020300923504 0.2366022598399357 0.1829671186196559 
-0.2051625286139329 0.09614320088141924 0.1847770769882325 -0.06126925621307876 0.01780729353414622 -0.09152180994045192 -0.1015420907541688 
-0.307936171064753 0.08538318642483168 0.8328697443738906 0.004727290587363786 -0.04100111276468293 -0.3668195637740879 -0.7352573084325503 
-0.461594062642121 0.09023559991929968 0.602575039662705 0.4717002087367916 -0.1965000465382373 -0.3923563897384463 -0.7152223680705183 
-0.5298299302814846 0.03308678301448958 0.2269043591889253 0.4450811351479921 -0.1346698982151913 0.002819844918373303 -0.4285039808410219 
-0.1796848703310654 -0.11928705271041 -0.3854383239589523 0.03520468699582203 -0.1023435627232974 0.5098382541356296 -0.3214847012240853 
0.6225421544596874 -0.07610546686520979 -0.2478800684993389 -0.2384155752669308 -0.1820136686920222 -0.09272894885175098 -0.1096006208893655 
0.05763558952291524 -0.02830803893446492 0.2902179896147705 -0.08763416814241588 -0.04961040616432856 -0.2100146124238658 0.4053524946487644 
0.3413169419851008 -0.05386111463853107 0.1255640419022048 -0.09489053782786784 0.06820917935093439 -0.3262790642659476 0.14333561378909 
0.01622771003284126 0.2730299178983208 -0.04709177994962498 0.04659812564945789 0.08716788028979353 -0.530417121526345 0.03805000618822196 
-0.4345412135511944 -0.01144988453423685 0.1641592782424265 -0.3961878725660138 0.252889985281382 -0.3594095660619642 0.4508181795425735 
-0.14706864705093 -0.3721946211131991 0.08327159626547066 -0.1457418151658107 0.1606341053700746 0.1227423449760183 0.2325434561888935 
-0.09653203131205233 -0.1203344335742245 -0.07522558486893383 -0.194324211050969 0.06116840299831584 0.1485914942427927 0.05148487030863336 
-0.07798587256683064 -0.01574368324103124 -0.08048737911046827 -0.2070223913836582 0.1122714744625433 0.04565311614864526 0.005818506880302676 
-0.1617812493400707 0.0429631045013977 0.07597393459599337 -0.2145188133994761 0.09799630785150375 -0.01729699073958021 0.03569228878339808 
-0.1520051014656275 0.06644029097625327 -0.003343180203143436 -0.1141415036097303 -0.0003697864446291568 0.003454565406909004 0.09883013066922433 
0.04410569446626832 0.2447861634292502 -0.06564001674506943 -0.3012192779448465 -0.0709415865496618 -0.06187889946372023 0.0043477708424414 
0.053731015364386 -0.03367389125634854 0.1275861007168284 0.1414080075038669 0.002878546461301125 -0.1446383247689886 -0.2373075898465397 
-0.05738230333085817 -0.03889028817883301 0.2768926047199499 0.1287000774598892 -0.007250413787442877 -0.08712192321038315 -0.113473806391982 
-0.109786941629576 -0.04614482341645112 0.1335627501786681 0.03384161567592853 -0.0403284529692574 -0.07202400811579816 -0.1390885915122242 
-0.08539690686821451 0.07196618934888507 0.1362567065583865 -0.07659434818153632 -0.04699208180260207 -0.01312929137944707 -0.1954390159808527 
0.03115086155012531 0.137006646637788 -0.007383497293416308 -0.149687288561558 -0.06025688032061381 0.004514961191118001 -0.2074883953861828 
-0.0228224260997313 -0.02533639988231486 -0.1000321355359289 0.1959391465866091 -0.01708949648276214 -0.02585559164470311 -0.03646774729381271 
0.175157024842331 -0.1098309881010536 -0.0260793487046598 0.2547713612863789 -0.08366202708491964 -0.1210637161209187 0.140884879954638 
-0.1741721644533136 0.532701364913034 -0.02836159432461489 -0.3119900959270487 0.1285322465598446 -0.4720601982398637 0.01463681091889638 
-0.07810472658537061 -0.07728742215600773 0.1592830875938185 -0.1197977455805073 -0.001999350441028854 -0.02377741694318181 -0.09046305003790218 
0.006549420966399365 0.01831221291872758 -0.0652932479235738 -0.008759494847298693 0.06990754159164186 0.01519579054900234 -0.02232925887901944 
0.0001480574557252129 -0.02907483105118792 0.03473555419810859 -0.06129112976948119 -0.03065994619356421 0.08193584909000921 0.01831089948028266 
0.005477417667946305 0.009622607213900571 0.05110923472673306 -0.07505809565474364 0.001459092076046094 0.06486249697186544 -0.1037642964146005 
-0.007942318810085568 0.006592323523699367 -0.0336567911078031 0.04544129344720188 0.1864548142635462 -0.05340909655311233 -0.1397443584285007 
-0.1218998703625057 -0.007627103009979651 0.172479466642625 0.1748441705066866 -0.1729265110893692 -0.04912162539072862 0.09225531082807648 
0.06957442511447598 -0.01196516255469229 -0.02737448977413735 -0.1630013230033651 -0.1192092424554093 -0.1169029123288543 0.1236906756545243 
0.02621421950987118 -0.05976609365554972 -0.1284072950173828 -0.1512924527790913 0.1061849465032524 0.08013230683186051 0.08537949357754555 
0.03088704108459399 -0.140135589568594 0.04295689963171772 -0.0833294641892855 -0.0146213589393624 -0.05142178829606874 0.004606032825784086 
-0.03616990163349412 -0.05890458494129232 -0.01044784864648633 -0.03366788516545886 0.02498146885117783 -0.005235020768036714 0.1131411606439787 
-0.01548876045671509 -0.02414565464296454 0.003580308681500475 0.04957780389771323 -0.01833504624231608 -0.01233793997637047 -0.01075918625645642 
-0.07155969801256576 0.02785157161351997 0.03824923769905555 0.02075531281607908 -0.007901317542039819 0.03310301710711787 0.04083195876000233 
0.01042901387289649 -0.0663556470435934 -0.02953660475040099 -0.09146336215862376 0.01884486791133866 0.04973729480186601 -0.1957547904414538 
-0.04502678770892752 -0.1019784089833424 0.08963442113845418 -0.1254503189210649 -0.08907570904687796 -0.01159358311701806 0.1735681618617857 
-0.002739102285668205 0.09265855781904933 0.07519026424775542 -0.1546605763905742 -0.02649831095171408 -0.01680512342303475 0.1107329685848828 
-0.1526318050655848 -0.04217710323304783 0.06341919279084542 -0.02697205709509429 -0.1361210130934491 -0.1599820379078014 0.2312639593030875 
-0.1448783735047512 0.1466435180726977 0.03157877971585033 -0.1048453188745928 -0.06267814867551054 -0.1326418336451528 0.1509563801724398 
-0.1110888443234156 0.1644955191896154 -0.04063272602467005 0.1055097127499041 -0.01412600337721234 -0.02836576531368779 -0.00207382746157128 
-0.1271197223391332 0.1167210091225845 0.03637013339819271 -0.01540712015303245 -0.086010746676663 -0.001085798052030878 -0.007306698102215888 
-0.07224172211536203 0.006044006084130225 -0.03008530475837533 0.1197367785981116 -0.02682829740916885 -0.09302828960747993 -0.03994882252394442 
0.02040930788209401 0.07976797449070094 0.01265495234580727 0.1151013966826006 -0.01463622532266844 -0.1167937569360298 -0.4517703024352206 
0.04947494237911992 -0.004298503728963498 -0.06738769640286546 -0.1858852760820562 0.07262877359260875 0.02833192409411233 -0.09868069789296068 
0.1641864698956877 -0.03921369010401673 0.0228018670988029 -0.1398380445556902 0.2991095855468306 -0.05221343020425718 -0.1329458446390152 
-0.0479145807213438 0.1215025995387811 0.130394352540902 -0.1253282530703907 0.002926669851953748 -0.005371546569024315 0.04771480644136207 
-0.0537729858860185 0.0627244204179698 0.03803783988002311 -0.09374844522028343 -0.002285075833821375 0.01692243564540221 0.01048286696762171 
0.03364863052678563 0.00201470572914231 0.005768221628056671 -0.08258706881547419 -0.006634993855350358 -0.02031550194139341 -0.07362946892441879 
-0.04849359384514139 0.01158210817791428 -0.08772185487501685 -0.05013888819963593 -0.0006167056934670064 0.04301078574703742 -0.07173217111487465 
-0.0703436156378644 0.07647700423177976 0.01770216000930261 -0.04688015789609835 -0.08734655742585433 0.07352715458084134 -0.07059840351733083 
-0.01643738932423868 -0.1005011595602764 0.009024039522281351 -0.03125951456793075 0.08112679136146378 -0.02614962140433447 0.0717959970757887 
0.07789889813031996 -0.2278302533404084 -0.1415388661672474 -0.03865170177523307 -0.02782259655709715 0.1102142633000851 0.06145499823343771 
-0.01161096917592829 -0.07752365885252437 -0.09140467961773208 0.02143443813454595 -0.002778109580850071 -0.02587775124352768 -0.002841606561350716 
0.1598763019830335 -0.2268073302731136 -0.007128649269955519 0.1507765213307434 -0.07422925076586878 0.03118357393170551 -0.2290311104797078 
-0.04637277435933965 -0.09214186591588992 0.2497675215628096 0.01954395499234238 -0.06403658901360842 -0.005954168832309445 0.03851840761916703 
-0.0332474443945795 -0.1130471184206856 0.3059840478940579 -0.1148933037627337 0.07229606551665595 -0.01608100208675342 -0.1637686086572533 
-0.02766776965101597 -0.09778179108883596 0.01436608186943086 0.0751527858400996 -0.008598814282091981 -0.01859654418643448 0.1216113683636659 
0.01834617586200077 0.01164117249699063 -0.06309324215704375 0.1170561744505557 -0.04219298261516444 0.0298710227206018 -0.1002745802390369 
0.04189334001415259 -0.2163094579409996 0.02130229561734252 0.1198227710678298 -0.001455464093158621 0.0191180557072958 -0.0735990982720866 
0.004173402007983798 -0.03379047866258417 -0.1146561740473375 0.2330333094414773 0.1512264042972284 0.02898113771332518 0.009682060506573002 
0.1019461232796589 -0.05048927616700224 -0.1467070999626305 -0.02995192195128646 0.006904112415398828 0.06516848168747501 0.04764076423380818 
-0.1252100665723464 0.02466205657828359 0.1167294328337423 0.02076275052617913 0.01755477313764247 0.0002856809958467841 -0.1975215926347598 
-0.1769227945662268 -0.02744854505193972 0.06449095543026309 -0.008450435884053902 -0.05680899325867441 -0.02896030785041255 -0.02105881719543892 
-0.07182764565087105 0.01725417908462538 0.004486949288409469 0.1039634374983095 -0.06234561127158433 -0.01194177583035988 -0.006956966280179396 
0.07491812280555009 0.1186662090093973 0.03564345864114878 -0.07783464004489886 -0.01267889110801666 -0.05966812137549392 -0.1199175898832123 
0.00881577121099633 0.03555765333811121 0.113266280562672 -0.1828244377897226 -0.005584681442365211 0.05557690670561211 -0.2156866633129901 
-0.007019323640649125 -0.12716539784898 -0.04804758927301442 -0.07184197204501505 0.0834571163509103 0.08659281156580621 -0.116980047762797 
-0.08962232790847391 -0.1280392145462738 -0.03486109117092914 0.00991482982359645 -0.06880545743384778 -0.05904026506544109 -0.08288978096403127 
-0.0007306202591398022 0.0988763372030073 0.1142603481049436 -0.04581652669596632 0.0894875543565143 -0.02204772827880968 -0.04842540902844427 
0.009720701513754267 -0.02548910273898662 -0.07388050025887019 -0.006853144916150506 -0.02316376861947319 -0.04435319299857129 0.06822387141427502 
-0.016926911331484 0.05820844164364288 0.04880172239240921 -0.1077049960476097 0.01356047795088393 0.0198124892254383 -0.04242427134325275 
-0.046449885025368 0.0495351240058749 -0.05128682386038268 -0.0591967496022674 -0.006055844816115993 -0.009812923107126599 0.08142847749881892 
-0.03683814940794752 0.03122690386315041 0.03347540210808193 -0.08870394315917784 -0.03981220355978279 0.02152991495613138 -0.06105237018962401 
-0.02736506081110571 -0.1928484800027942 -0.03811425252211377 0.01159613624105191 0.1230751977449284 0.0358913446306859 -0.0796173538025445 
0.05619902671618246 0.04197370062320346 -0.01412213401480486 0.01529680221678882 0.08591372693111161 -0.0397836229834593 -0.1753512297078127 
0.01307557532237649 -0.07940658256519156 0.09635960500552872 -0.01906408312206832 -0.0959161952551822 -0.07463328119404963 0.08348913758973769 
-0.1686893970271431 0.06514424893804317 -0.008862507341215768 0.1466335847796776 -0.04475598444094087 0.05619247483351703 -0.2834020268327576 
0.04223566060654241 -0.07024783099081029 -0.0327958333783046 -0.05317139918874553 0.003683713513179251 0.0314640386718163 0.1019396592411018 
-0.03672721024898874 0.03531951753760199 0.02877840553641833 -0.1085572242257196 0.02845146434560834 -0.02403296956645617 0.02314675415283982 
0.009296557932174095 -0.04770776769577918 -0.003144193150738639 -0.1120129227633634 0.005885385371375782 0.02302995131992244 0.07030339568949073 
0.003404699150280251 -0.01556861101736082 -0.01569223459467653 -0.06134379052971592 -0.03701988176535599 -0.0222806221045724 0.1387016575553393 
-0.09486424337450244 0.04080717027634229 -0.0709272931681086 -0.05585965407496684 -0.06865009583718266 -0.04681123304835372 0.06193277524076466 
0.02639578549656946 0.01642051649252247 -0.208369872412709 0.3088675340528908 0.1618313586575179 -0.1325526997848451 -0.2971390282371253 
-0.3002656924588125 -0.1227595902090485 -0.1521854290330522 0.359316663550497 0.1862358203522147 0.08726976819637276 -0.1745991255114055 
-0.09876210309740478 -0.01090537585626994 -0.09846524733886713 0.1565803089991484 0.02737866341449272 -0.03424378571958304 -0.01749011274475809 
-0.04084947377804132 -0.02238108333961037 -0.09275014568417472 0.140698538045085 0.05633176982558665 -0.03974076923251661 -0.1363087495352716 
-0.05352330507358733 0.002226545736518188 -0.0652507122249581 0.3580816612387645 0.0274557305158902 -0.09152144809277576 -0.1172044701513643 
-0.199736525709014 -0.03378805392480985 0.3368893251278097 0.2095506990464737 -0.1605940607644427 -0.06703931262651103 0.2919006503203445 
-0.1526997997966038 -0.02374064364268932 0.1382053495167383 0.1758751534660784 -0.5048218048713139 0.01624654377833912 0.4853782622970768 
0.3237042050065451 -0.115371606080474 -0.6031948076922556 0.5055751753570262 -0.5389961746600912 0.4089683113809274 -0.6516713040290457 
0.2912344540081913 0.1045792003987128 0.1503257582530884 -0.3570528253519223 -0.07296714923047139 -0.1727818994272862 -0.2036640762551113 
-0.1843681844270589 -0.002467503107376531 0.1857251120325764 -0.2635359374699754 0.1268852711006545 -0.05357832423298071 0.0318801536805372 
-0.01231128853725697 -0.009493801371346339 -0.008648781385653927 0.02122932222623948 0.006890453625387844 0.01309843020278799 -0.02203137189185784 
-0.01275375220117336 -0.04079299938345465 0.06174961559072614 -0.1177223692487957 0.03347137258831288 -0.01572206017649876 0.06843068482110082 
-0.02644816663526595 -0.06716223952060009 -0.02717110524351981 -0.06376095435025403 0.05242038128105964 -0.01359541304122824 0.1475641122075894 
-0.1183811717959256 -0.181510678579151 0.1000778113075108 -0.1011270105940895 -0.01634068726543269 -0.04259083040743977 0.1932767740966918 
0.007083637884246105 0.01295588539098309 0.07112470355003338 -0.1563258606865728 0.1045475920438575 -0.1639777734386053 0.02660457677619362 
-0.1429353165223192 0.2875156661099446 -0.2219159666439598 0.8805064953644917 -0.2085105137490919 -0.01644229900037123 -0.4721307503250553 
0.03704037664948994 -0.1723556346030633 -0.242984304341189 0.8927106952196748 -0.1111292115049129 0.1522231907654431 -0.5007845249295152 
-0.09989967568037771 -0.1554867829889429 -0.4204219133170539 0.5741424669131867 0.2265582295660472 0.08808073345330095 -0.7003931513169463 
-0.1303824876212371 -0.1300459405496824 -0.2596254399119676 0.6636001495759793 0.3004160094711865 0.05246262447097769 -0.8448134045163957 
-0.1584542564029572 -0.1227969556171647 0.1388657193009225 0.07467826883297712 -0.05786720508397752 -0.103577595376513 0.1389128544336622 
-0.1121757219582122 -0.005398645980576629 0.5455612648303475 -0.6312224670682028 -0.5944163993452554 -0.2509840389171176 1.116727049237409 
-0.157454343355916 -0.06514393804194737 0.2234713633526975 -0.5394269903302542 -1.025722738951488 0.1180920717479739 1.005379547878161 
0.04341086304959813 -0.07346600631447908 -0.3307105420778717 -0.06635879568158805 -0.4439857276742419 0.4717748838112008 0.1948686386574856 
0.4218354122254587 -0.1326268445494522 -0.06228863889901347 -0.5100593950432178 0.02133033985280732 -0.1597251732109292 -0.1363513978282679 
0.2557243187611913 -0.1871314249392974 -0.02411003664628384 -0.09780158409378215 0.2663571233086969 -0.2146832032025809 -0.1695096781583187 
0.06010501119496176 -0.08496728612956574 0.04305278789118069 0.1795304338114718 0.5507655290590397 -0.1272488220282355 -0.7119362798158725 
-0.01861590789081549 0.08720450039511746 0.1896687724292756 -0.01570781171141703 0.04123027789458836 -0.07378824674953259 0.01138191873953426 
-0.05771373195088262 0.07635282928402161 0.1837812018243521 -0.1448997251232579 -0.1990555331254013 0.1548079342356044 0.02754400235926146 
-0.2189385732247812 0.1443685264270736 0.1558831885127759 -0.3563471643446171 -0.158633005025991 0.1828916828577213 0.08403927254891923 
-0.1982997621405655 0.309036888934916 0.07698540127996706 -0.1522310200821174 -0.01343633969448724 0.06032469085401235 0.2371622024460888 
0.00828207018453813 0.3559801921142504 -0.34970583142551 0.2489884604449541 -0.219465277201788 0.09881143056594793 -0.4719794254292914 
0.2050463908361051 -0.03838884408419818 -0.2192806002512649 0.2282869333874282 -0.350064452870988 0.159674611897573 -0.3384802825959038 
0.1731037588145168 0.007638662512951023 -0.1552593142417112 -0.0632811421703456 -0.2592664634441317 0.204915656863328 0.05637592885382895 
0.4727143073227564 -0.5011451378652083 0.2155305178819575 -0.2010799605582024 -0.3056550879512928 -0.2047628860275879 0.3518124219552698 
0.01188186845898638 -0.4707551477333201 0.1693762955971261 -0.004558685295128271 0.3324654175139863 -0.483028188061414 0.4557090372298563 
-0.07731308826396426 -0.550221360853825 -0.3327115540524457 0.3588094834545635 0.6025678459025479 -0.3807520606700917 -0.3239824768855375 
-0.1472976654111688 -0.4183438930881562 -0.2981125132249584 0.5320435748797609 0.3225071332979667 -0.301285205219044 -0.205703132985449 
0.1423063972913813 -0.1981281610401841 -0.194427209118737 0.02066632105613907 0.006103304125420165 0.02306908161345108 0.3892558706133313 
0.268234705834856 -0.1817958826702577 0.03965292408939568 -0.2209386833591427 -0.1549063433231541 -0.1396891835021525 0.5504267121485389 
-0.2135470077075646 0.1531588351124782 0.4894380265590751 -0.124586668673344 -0.04840715738350386 -0.006357074843617618 0.005427782800097317 
-0.4062558669924431 0.3352396071728154 0.5429781246463443 -0.228574797491073 0.3077085027017615 -0.1320005107414764 -0.4245546306681666 
0.1111317791340397 -0.009252440331563555 0.4900205241399472 -0.2061191293627426 -0.02174070409380771 0.06134047935885512 -0.3844505149213616 
-0.2078928697643157 0.1715840546529782 0.1804900804886821 -0.4557931802219131 -0.2468879297010541 0.2163468283624021 -0.05800772442889774 
-0.3789637415389085 0.3231795049424657 -0.03122167878135844 -0.2546627395146068 -0.1720017301863971 0.1429665242165659 -0.2150867579764309 
-0.111906288896233 0.2623009746390353 -0.21849989261013 -0.06501491547375902 -0.2634699025548012 0.04897638242156604 -0.2461598708481475 
-0.08405222820211734 -0.1842484458182202 -0.3399298254589726 -0.07818377408657032 0.01368002053096031 0.03770124716524791 0.868348490183399 
-0.07785969047529302 -0.1419310711935982 -0.2402270341503897 -0.4240848115549358 0.1269559349269655 0.2990073329201149 0.5833443594060778 
-0.4332135614550144 -0.0528160398267559 -0.3324140349236299 -0.5399560175554828 -0.2112562164701557 0.8045620598918036 0.1664530040966778 
0.3567185603829444 -0.2972106325103552 0.08127054511570256 -0.6966568538530634 -0.01225683018873791 0.1272284711546043 0.4869035807680688 
0.32262091622271 -0.02708801237708124 0.170372257007879 -0.3844959003887889 0.01953922409429203 -0.3882540666354674 0.610509609306553 
-0.1084725861077736 0.004520623257988804 -0.1788916478574236 0.2493387806532744 0.4652097051163176 -0.2427298585392722 -0.4029211861465701 
0.07160228115809206 0.06597838503387744 -0.3662297449635225 0.2098987127242623 0.4891466207356225 -0.3413852732416265 -0.5176708395572711 
0.02257180674688583 0.2252217892047242 -0.1060195591383452 -0.06857287787671651 0.02247540183602609 -0.3840952919908217 -0.08681272860136689 
-0.2801665333782224 0.4861171802736393 0.1279350848036291 0.05703065415600048 -0.2269237780459332 -0.3258300267663792 0.2786355121802376 
-0.6145943999959321 0.581273525343258 0.2358798879041778 0.1519176248508194 -0.1311544262560262 -0.101994848277426 -0.260650158361538 
-0.3135218354261959 0.2590329170606702 0.3890111593597299 -0.1025189419526748 -0.2766179757864787 0.1846327991018507 -0.3880159820197931 
0.5247070123665958 -0.4443464647395629 0.714436482403262 0.1872449888262869 -0.5116326150764443 0.1058717302935803 -0.6406340960331848 
-0.2101141059902888 -0.380398203783508 0.5710116873698234 0.3152808019738453 -0.3020261622191064 0.06801346986503594 -0.3664079877724306 
-0.1599017870954614 -0.2271955854348415 0.2275261520833243 0.2922015246492947 -0.2394614103107252 -0.1233443136425908 0.1969754564944179 
-0.08675862406566914 -0.1623610948852703 -0.1800249823664125 0.2724077638902088 -0.2689950171611839 -0.03830350985322073 0.7014307869690634 
-0.1872472906380685 0.3784315764301248 -0.05108057710327678 0.1263849705069342 0.009565222732861737 -0.553479425869397 0.3128813624521296 
-0.1583157465980415 -0.4296847531243793 0.4636145707853112 -0.1937934428939938 -0.1114331173366274 -0.2026527551442786 0.2421492123795062 
-0.1973253508900722 -0.6195149290970897 0.03480693166248765 0.004596078913071576 -0.007587449616455112 0.3894764133085815 -0.01053795434139201 
-0.02842439345333654 -0.00493281988052296 0.05354812542442536 -0.1171182301108317 0.03083415517736403 0.3273608514838325 -0.1734405033281708 
-0.1595638411917907 0.397391926442735 -0.09590278998166096 -0.3277027495358579 -0.08180328949836577 -0.1079079146893653 0.3857906829068328 
-0.4056157403835257 0.6144104849342787 -0.1009507762040797 -0.3549595166523236 0.02624216766083696 -0.1256122063615295 0.07900693508206535 
-0.08288129952078407 0.6423389698807909 -0.1393645280197053 -0.132700007755156 0.108794317696916 -0.2203182578863512 -0.22290807719412 
0.02586253680589776 0.1520041565020891 0.1108621740034513 0.3632352327861015 -0.04816701040302971 -0.1880125749863013 -0.2881286320280045 
-0.2934016237374139 0.281586154401463 0.1414288949170918 0.5792594714534592 0.01753586557285424 -0.1438832091342545 -0.4433795861208698 
-0.3731721659264984 0.3340464229271655 0.02920109927360439 0.3648676534259294 -0.07436920801919664 -0.001894436541404821 -0.3499159069426672 
-0.3501595683054846 0.2009707321584904 0.07627622464621792 0.1093991114623564 -0.1425472864847863 0.2485093076995593 -0.3354022756451783 
